-0.27138735,0.097555175,-4.7636493,-0.077077358,-0.059642488,-0.68477524,0.19675989,0.73776505,-1.0612343,-0.14508598,0.15707759,1.8948638,0,-0.12761405,0.060461308,0.036925217,0,-0.0088213609,-0.039926739,-9.590094,0,-0.0015503845,0,0.4277984,0.7185302,0.040425822
-0.37704023,0.06653914,-11.416727,0.058895129,-0.059642488,0.059635807,0.54347413,0.73977424,-20.343458,-1.9689333,0.29325116,1.7499849,0,-0.80078005,0.050523901,-0.039705989,-0.13968093,0.85549546,-0.19382857,-9.7007296,-0.078315749,0.25669416,0,0.98554082,0.69913073,0.0044674673
-0.1424864,0.12462306,-5.735337,0.038759967,-0.18273554,-0.095487455,1.1600653,0.26930159,-40.483374,-3.2511127,0.50707924,-1.375324,0,-0.30352771,0.11779378,-0.037563354,-0.10746896,0.72961753,-0.043090184,-9.2496641,-0.46803456,0.41776523,-0.037329519,2.0343244,3.3305916,-0.30091353
-0.2439772,0.11797579,-5.0661631,0.062556395,0.2476654,0.36412684,0.67241055,0.5900836,-55.258154,-2.8683275,0.46584549,-1.4724332,0.13002372,-1.0101855,0.18922393,-0.040434831,0.086896594,-0.0067052359,0.093275467,-7.6953465,-0.61273615,0.47433688,-0.037329519,0.31080832,2.2413862,-0.40067803
-0.52075364,0.11200083,-11.378739,-0.50670565,-0.25926898,0.5102439,-2.0316824,1.4091516,-66.491424,-2.6611337,0.36153058,-2.8791117,0.087671284,-0.22207589,0.19844465,0.019306784,-0.28335863,0.24559457,0.19037785,-0.057345446,-0.43850555,0.76629865,0.10603709,0.89150988,2.0971239,-0.73407916
-1.065809,0.0087260429,-7.9210759,-0.6514374,-0.28435416,0.42143147,-2.9282987,2.079664,-70.2306,-3.480038,0.18823146,-2.9081475,0.20351893,-0.52453982,0.22805956,-0.34260738,0.013184313,-2.6798353,0.45101203,-4.4462522,0.05395251,0.1441429,0.14114915,0.31105831,-0.57063174,-1.1580731
-0.59795546,-0.045612005,1.6319286,-0.54341616,0.040101166,1.0537016,-2.8620545,0.93537087,-71.802076,-7.6490005,-0.27459993,-5.9879918,0.083439413,0.033612774,0.25022077,-0.67472854,-0.096663015,0.6775885,-1.3730813,4.9811562,0.45124425,-0.22704115,0.23560636,-6.1128653,-5.7044754,-0.94224701
-0.75974595,-0.14313737,8.626838,-0.74518888,0.38412832,0.30682685,-1.70687,-0.17252707,-74.14488,-7.9276398,-0.24925637,-6.641868,-0.010478081,0.56039932,0.43576842,-0.43799478,-0.097264425,2.5186007,-3.1732116,0.60976198,1.296302,-0.26390945,0.30522648,-16.084286,-9.2060171,-0.89925489
0.26612105,-0.091447726,9.4123329,-0.39418492,0.10768914,-0.26135168,-2.6601283,-1.3886382,-56.41829,-6.7964713,-0.2617005,-6.1682627,-0.06222922,0.8246765,0.23833223,-0.68036262,-0.080484697,0.93071812,-5.6483355,-5.8513894,0.81121881,-0.40708706,0.27532524,-17.399238,-12.951621,-0.78455154
0.96396124,-0.11438974,15.197262,-0.24140585,-0.15636787,-0.68338702,-2.4380035,-0.47390649,-50.829316,-5.8373599,-0.29087288,-9.8612992,0.012371627,0.79518565,0.15222754,-0.4574656,-0.11093329,1.2783351,-4.2776559,-11.17684,1.8303662,-0.58940312,0.19889568,-12.958611,-12.686661,-0.93626315
0.74799393,-0.21445868,0.82917398,-0.24929027,0.01014985,-1.5375435,-0.63710294,-0.48704316,-41.427599,-1.6385419,-0.28208771,-7.519767,0.037170358,0.48571243,0.16545047,-0.071642276,0.15381396,0.95100832,-4.1544722,-26.948152,0.074033265,-0.34376811,-0.1151657,-2.5559087,-10.39436,-0.61940319
0.43512538,-0.088412172,-3.2656576,0.17427414,0.0010249189,-1.8589353,-0.46795573,-2.2234962,-34.247124,0.65564359,-0.11655616,-5.281893,-0.028729106,0.32410112,0.18150042,0.2354271,0.050259516,3.3143643,-1.6831163,-38.248562,-0.63915058,-0.14722808,-0.15027777,-1.5103367,-10.510077,-0.057354426
0.48303546,-0.13163972,-4.6031059,0.54763736,0.38190082,-2.1848221,-0.76975401,-0.68811522,-24.110796,1.1131307,0.6103652,-2.7264112,0.10678236,-0.12176257,0.22497038,0.55692071,0.027986044,2.2304179,0.35627592,-49.886777,-1.5396132,0.31781864,-0.38401891,0.49932571,-5.8037506,0.089678857
0.33694048,-0.059045319,-6.3860568,0.51733388,0.3671766,-1.2353621,-0.92335277,0.63583137,-17.333194,-1.3228181,0.64571698,-1.8339412,0.098776971,0.49219922,-0.054140763,0.38006989,0.12222971,0.81232467,-0.098219549,-57.324866,-0.47582176,0.29661614,-0.41403827,-0.5791134,-4.6562904,-0.0055594921
0.038754472,0.087852266,-7.0388094,0.38948334,0.19635118,-1.5351275,-0.75671632,1.9135221,-7.0466198,-0.4664404,0.43043201,1.2151709,0.042735728,0.64845343,0.39078434,0.31109048,0.032002101,0.85253338,-0.23348211,-46.821471,-0.11455947,0.49236179,-0.20804793,-0.70466517,-1.7689853,0.033034896
-0.11029167,0.24159433,-5.9625714,0.19291053,-0.19609721,-0.47784766,-0.18248948,0.19882541,2.1093246,0.9314187,0.074066569,3.331244,-0.028506128,0.17016501,0.17695373,0.35373183,0.030236039,0.55719131,0.028414217,-21.770741,0.08740326,0.054014564,-0.16531524,0.16246846,0.37455366,0.035713799
-0.069130209,0.084785699,1.8456131,0.17292189,-0.031490626,-0.16647032,0.14552161,0.89486928,2.3041599,0.19938877,0.032655904,1.7161206,-0.028506128,-0.50723507,0.16177809,0.30642843,0.057380188,-1.5258752,-0.15624203,-4.8834222,-0.23390102,-0.029702246,0,-0.028506128,3.7318906,0.11535674
0.17685699,0.050598124,0.11086897,0.21497383,0.13716746,0.20054085,0.3106511,0.75215483,-35.072656,-1.1858352,0.10622283,0.51230537,-0.033847027,-0.92824442,-0.0096494552,0.41675113,0.11313802,-0.99240874,-0.37329403,-11.392303,-0.41267104,-0.029702246,0,0.4277984,2.1416578,0.035713799
0.017958262,0.081304138,1.2036649,0.089611503,0.19428678,0.56591179,0.77311247,0.6256747,-50.758461,-0.71594992,0.4351665,0.47676581,-0.033847027,-0.92824922,0.28322794,0.5981751,0.15516875,-0.95620905,-0.077569797,-14.774224,-0.69858827,0.52778223,0,0.075111582,1.5321538,0.038594388
-0.15458096,-0.041467677,0.206323,-0.11672633,0.46488905,0.26602708,0.033130558,-0.55400705,-48.862078,-0.36088403,0.084843376,0.16490165,0.036074603,-0.89357283,0.15834945,0.57501761,0.41187217,0.85915617,-0.36662655,-6.6108431,-0.31620674,0.13912832,-0.037329519,-1.8036391,-0.40746044,0.058292826
-0.1935564,-0.10629859,0.49392782,-0.060208884,0.27385009,0.1835491,0.49571128,0.38756344,-50.525206,-1.9050689,-0.34165976,-1.6439055,0.043905338,0.0045694245,0.15553003,0.29681346,0.37016112,-2.3636252,-1.2967626,2.055874,-0.2019994,-1.0454012,-0.072441584,1.7230599,0.00065662603,0.09112977
-0.27676792,0.0016821355,8.6355234,0.15607328,0.77807908,0.70025964,0.59226805,0.16931942,-46.925676,-3.881702,-0.24515867,-1.7622196,0.12829055,0.29880304,0.15560995,0.24888662,0.4214369,0.25536142,0.24951887,-5.0496473,-0.50581865,-0.63717343,0.062081029,-1.2260356,-2.5308004,0.1996637
-0.83919409,0.27849926,6.006924,0.10492249,0.31820038,0.88613503,-0.045179713,-0.61404417,-46.690943,-4.5019366,-0.23858939,-5.2857238,0.1447599,0.84135488,0.2013998,-0.36465625,-0.09000567,3.4306876,-1.0367868,3.4834149,-0.78275547,-0.43416513,0.063748743,-4.0155899,-3.4434014,0.12974343
-1.5123499,0.19218829,4.167849,0.21723268,0.096924232,0.03791032,0.49766027,0.70204365,-51.007681,-3.3367797,-0.0016838555,-5.0695016,0.1347993,0.85220154,-0.026045679,-0.048412981,-0.18588414,3.8842347,-2.4073335,5.7054629,-0.7720402,-0.44263996,0.13803811,-0.71215357,-5.3407848,-0.074645157
-0.468668,0.022825547,-9.2988184,0.38404447,0.067401236,-0.70151755,-0.27367781,0.042846292,-42.661588,-3.2602965,-0.046960376,-7.9101873,0.11022607,1.2090406,-0.23296663,-0.046738029,-0.16946271,1.8413999,-2.3926225,3.7527403,-0.07081496,-0.28468007,0.078749271,-0.17088256,-5.9106857,-0.022791986
1.425858,-0.089828427,2.5462121,0.18975462,-0.0849321,-0.59660095,-2.0276285,0.17703178,-35.691918,-3.8090708,0.50736079,-10.892639,0.017621621,0.96054794,-0.0071415198,0.40569258,-0.33161488,1.1374707,-2.111141,-10.163423,0.13153877,-0.4066402,-0.03181928,2.6031039,-3.0397205,-0.41385462
0.2487146,-0.19291582,-4.5574071,-0.20978619,0.086721153,-0.57032607,-2.7010385,-0.37035774,-25.145745,-1.8642913,0.75696776,-8.3000296,-0.024455262,0.1595575,0.032694753,0.16225427,-0.11527532,-1.5853906,-1.7337832,-19.825403,0.0096116235,-0.12985207,-0.16702057,-0.19202819,-3.5146388,-0.28327278
0.013900086,-0.11774156,-2.9354519,-0.11683065,-0.0087900456,-0.055586981,-1.675173,-0.15124262,-18.902184,-3.6042434,0.11835671,-3.6271431,-0.13448131,0.32304922,0.12040696,0.3615515,0.096313809,-2.52509,-1.4653372,-28.390013,0.34557762,-0.46920887,0.2100851,-1.7876317,-3.2793083,0.10761074
-0.28578469,-0.24146884,1.0758291,0.13817627,0.27736433,-2.0002589,-0.53894566,-0.24998051,-10.95505,-3.4488305,0.13174136,-1.8011528,-0.20159394,-0.62749498,0.045987025,0.64128068,-0.012837615,-1.8100645,-0.76723504,-28.796027,0.15650186,0.28579445,-0.022793018,-1.514323,-2.0691723,0.071382833
-0.35095305,0.26434153,-2.5205859,0.095121219,0.30794877,-0.99295566,-1.547659,-0.76415472,-10.399731,-1.6406925,0.2909804,0.62157079,-0.0014203978,-1.4272562,-0.54674526,0.34663695,0.087672067,-1.9577345,0.10666441,-23.923251,-0.12241894,0.17082647,-0.19671464,-2.0360393,-3.9033334,-0.088099556
-0.18474094,0.15852047,-7.6247243,0.27190068,0.25087678,-1.1167172,-1.3365052,-0.35944477,-0.80465787,-1.5718699,0.38170447,0.53075085,0,0.19026751,0.11913903,0.38652027,0.058026806,-1.3036489,-0.35389813,-16.150306,0.16426459,0.29570364,-0.2011592,-0.12047209,-1.8377054,-0.081754463
-0.30179232,0.15292062,-4.6977659,0.19085271,0.032368873,-1.3848472,-0.68355842,-1.3018066,1.5339633,0.27298328,0.23987993,0.34054596,-0.028506128,0.22306724,0.17453695,0.49795832,0.030236039,1.3848368,0.21327542,-19.049754,-0.060909694,0.046585786,-0.19673662,0.0074101673,0.41058335,-0.038360013
-0.20487408,0.016910718,0.70658638,0.063317344,-0.00063740759,0.2038416,0.5560035,0.510042,9.6783674,0.40436782,0.21484608,1.9842651,-0.028506128,-0.83444377,0.12136146,0.45105407,0.085559808,0.45823153,0.051116197,1.9525754,-0.52983948,-0.038180587,0,0.058892989,1.8159002,0.11535674
0.18035322,-0.095336531,0.69359493,-0.0095228929,0.16539431,-0.0092574009,0.66446789,-0.22687452,-28.746781,-2.249353,0.26971149,-1.8784443,-0.033847027,-0.88877657,-0.084470571,0.52229881,0.083637029,-0.2716164,-0.16995039,-4.6162558,-0.46337506,-0.040401636,0,0.24289063,1.7228887,0.039222109
0.079861687,0.0053849021,2.879106,0.21777704,0.42193519,0.36766257,1.0176962,-0.70482819,-42.409593,-1.4338284,0.026465461,-2.5814415,-0.035167253,-0.20842734,-0.032923391,0.55032207,0.15540837,0.23167428,0.17782707,-14.379717,-0.4954869,-0.28279038,0.13691745,-1.6320205,2.2842746,0.038594388
0.067538752,0.057662071,1.6327619,-0.077690765,0.58052038,0.12752972,-0.14910494,-0.48365739,-51.010726,-2.1782581,-0.23270621,-2.7460652,0.072377393,0.098876041,-0.088221188,0.27175248,0.38001194,3.9519483,-1.1549779,-10.390555,-0.029157255,-0.931607,0.13265861,-2.0554911,-0.85155826,0.20483762
0.59405652,0.0093894733,2.0840196,-0.0750883,0.33746448,0.44990329,0.92402947,-0.31692292,-56.992573,-1.6929848,-0.29394065,-2.7925503,-0.11062705,0.084758079,0.067071029,0.286941,0.36249537,-1.9498378,0.61694297,4.1191677,-1.3917525,-1.5106933,-0.041588365,-0.97766795,1.9271462,-0.019648073
0.47187667,0.11803274,5.1407714,0.055703944,0.71137898,1.3887237,3.0535094,-2.4178044,-41.228382,-1.7556192,0.11449033,-4.9747975,0.024039258,0.26456109,0.085741124,0.14267351,0.17183931,-1.366263,-0.098632531,3.9923633,-3.2305722,-0.62570583,0.0021121178,-0.12800007,-0.025262157,0.13248455
-0.64401017,0.1060257,7.9583803,-0.089719583,0.21871768,1.9413535,-0.2059007,-3.2971992,-37.236844,-1.5471864,0.319053,-2.7595214,0.22928139,0.27818729,0.1510235,0.098341201,0.060809632,2.650271,-0.35539844,13.214552,-0.81238068,-0.87559146,0.0045643006,3.0051773,1.9606506,0.40165697
-0.43388119,0.0413304,-1.1311872,0.15904555,-0.17708463,1.0870558,0.45714406,-0.12980559,-42.582199,-3.1036629,0.60774845,-5.8323187,0.25148939,1.1360996,-0.15998419,0.0087412421,0.14848556,1.5478794,-0.35205882,8.9119177,-0.82000158,-1.2511763,0.010371186,7.3585884,0.92999768,0.19425896
0.45591815,0.19432914,-10.567271,0.138094,0.14676916,0.3759609,-0.64210273,0.18984495,-22.881917,-3.4894076,0.21920472,-4.8024605,0.12167044,0.94906398,0.076781745,-0.024735452,0.10133317,1.0517093,-0.84900732,5.4094239,-0.8142443,-0.49192607,-0.025243644,7.406339,0.84462526,0.40842508
1.7369054,0.15417427,-9.84147,0.046300879,0.00023729977,0.21328733,-2.7727015,-1.5538794,-10.144915,-3.3877235,0.38570404,-8.4723332,-0.043351255,1.3158001,-0.44831207,-0.11044814,-0.090774629,-2.9981666,-1.1430667,-0.074274216,0.55766396,0.52845181,-0.056351421,4.4340745,-3.2993354,0.13004051
0.4224988,-0.029663461,-13.467406,0.243847,0.16027655,-0.29309704,-2.2862056,1.1101213,-0.61147083,-2.9122899,0.47148845,-4.1884009,0.10616751,0.73718524,-0.09948587,-0.20965381,0.035232338,-3.8142593,-1.2337034,-3.7249229,0.3719725,0.1135569,0.031942081,1.7423774,-2.5802686,-0.18094902
0.22501039,0.042434576,-9.2848584,-0.0024912366,0.2315579,0.037611261,-0.19127606,1.7872086,-0.30465593,0.58724254,0.12534989,1.0885729,-0.16444071,0.44757667,-0.25794577,-0.25258165,-0.065076729,-2.2141731,-0.328927,-10.62186,0.12923255,-0.4230728,0.14906358,-0.71589098,-0.72487652,-0.10971237
-0.20289977,0.11198534,-7.6318398,0.11905789,0.075098088,-0.75689348,0.39259179,0.2620041,6.1580035,-1.2655764,0.05962379,3.67421,-0.31684686,-0.44900596,0.00099089506,0.015930346,0.012977221,-1.1822183,-0.523768,-7.3430269,0.25305235,-0.12140264,0.04121531,-3.7662468,-4.6281906,6.9875541e-07
0.38977598,0.15301667,-5.5617591,0.12039222,0.44471061,-0.66215051,0.15150052,-0.24110032,6.7625094,0.75643881,0.29699742,-0.65841689,-0.036587651,-1.3595261,-0.12924916,0.19019516,0.091345604,-1.2788667,0.11423653,6.3548264,0.30034175,0.1905,-0.035112065,0.91666847,-3.9602296,-0.070817579
-0.10589526,0.047035331,-2.686926,0.20958845,0.0084013755,-0.19643494,0.79461778,0.90561364,1.3103788,0.35166785,0.2691212,2.4333882,0,0.14561892,-0.25302993,0.19019516,0.058026806,-0.75807849,-0.18121979,-4.5311129,0.07973341,0.16611726,-0.3041672,-0.37442327,-0.48115962,0.071962294
-0.32946305,0.2438081,-1.3496958,0.32545536,0.21825653,-1.3340772,0.14238047,-1.6024303,1.6331858,2.4824629,0.13089649,2.8696921,-0.028506128,-0.30014574,-0.22407134,0.1608359,0.060684635,0.72060735,0.43260983,-16.804714,0.10610558,-0.043974407,-0.22799508,0.36546268,-1.6558071,0.034108132
-0.054872511,0.049025904,-1.371937,-0.0012125832,0.052489462,1.0171648,1.0291837,0.77934834,7.6586539,1.6013621,0.014118846,0.60638014,-0.028506128,-0.56460952,0.021786516,0.80860988,0.1160084,0.50043976,0.33740722,3.2130527,-0.43180212,-0.12340433,-0.13691745,-0.062335716,1.1041855,0.076134636
0.17481505,-0.013356148,0.64870481,0.062716341,0.12488474,0.51310289,0.60856708,0.10295376,-26.88428,-0.53211742,0.094206642,3.701408,-0.062353155,-0.72017464,0.10362457,0.52216281,0.1773147,-0.46760343,-0.14396456,-6.1939489,-0.35557981,-0.16384721,-0.20394417,-0.22404931,2.7314067,0.24231281
0.070027257,-0.030886025,0.65019493,-0.028619678,0.63730454,0.58821051,0.59796197,0.5348038,-47.338814,-0.34676983,-0.16917379,-0.20885154,0.028955512,-0.1757579,0.026255362,0.41573172,0.25086901,0.21466523,-0.033981782,-7.5158613,-1.1160664,-0.51242339,-0.23905623,-0.44014216,1.6488804,0.030774106
0.69596234,-0.024653804,1.0636008,-0.019066889,0.42074192,0.71036989,-0.11183901,0.67225277,-62.25444,-0.019378102,-0.006575023,0.041215364,0.056041243,0.11804701,-0.054216409,0.15094183,0.38941478,3.6632547,-0.61908182,-12.536037,-1.869729,-1.0830512,-0.10213878,-2.1779857,2.8837921,0.16116939
0.41408365,-0.15573909,5.1269685,-0.021888946,0.24474761,0.07701945,3.2073673,0.71920297,-67.642739,2.1757313,-0.29549533,-3.2815412,-0.062988736,-0.45757537,0.1947798,-0.065655176,0.3336125,-0.63767598,-0.69913184,2.1895044,-3.4455297,-1.8695081,-0.12939047,-3.7264467,4.8774386,-0.19157342
0.81756014,0.11787242,9.1846578,0.13118532,0.26921803,1.5746212,1.722138,-1.4704014,-66.117021,0.27961893,-0.18511562,-1.8133819,0.061073172,-0.0063916092,0.4031878,0.24643561,0.22590107,0.15560378,-1.8036465,8.5854458,-1.919744,-1.096344,-0.025078914,-2.2197575,0.83627041,0.25251823
-0.18518697,0.24303612,-1.6641459,-0.064532393,-0.34192573,0.79870783,-0.78486378,0.065908087,-45.946564,0.43981794,0.45516704,0.917685,0.099142969,0.33490837,-0.080913174,0.55568889,0.10678511,-1.0361782,0.86114149,11.13084,-0.87541783,-0.9270406,-0.2031176,-0.99773593,3.6881474,0.51876596
-0.043745706,0.30165046,-12.279322,-0.089862543,0.2908766,0.72024297,-0.42507592,1.4395118,-36.618654,-2.1876628,0.65201976,1.2860922,0.13984534,0.68975567,-0.67041161,-0.017380686,-0.095964459,-1.5589259,0.27095694,3.9887844,0.1847392,-1.2992692,-0.067103572,3.6922259,3.1381075,0.51383295
-0.43669829,0.072456823,-19.189689,0.0695117,0.3404815,1.0028819,-0.66257398,0.38855117,-24.054104,0.025865943,0.20866311,-3.959291,0.20740181,0.85561172,-0.33014028,0.25706691,-0.13150003,-1.34118,0.6578765,6.5920953,0.77369017,0.53071485,0.16306374,7.2689586,2.565502,0.5553177
1.0940952,0.055164969,-11.397852,0.10120305,-0.06782633,0.90594186,-1.8752301,-0.44732219,-10.335592,-2.0736486,0.46991677,-0.13413552,0.31542736,-0.15328235,-0.43280901,0.019467559,0.13809994,-3.4857869,0.40412523,6.5304828,1.221838,1.1421636,0.13473881,2.8797701,-2.5573353,0.62400716
0.64224273,0.27882138,-4.7660468,0.34472042,0.16760263,0.37283064,0.14846615,1.0965307,5.3036599,-2.6830433,0.54790569,-0.58550875,0.11815128,-0.81486252,0.016274385,-0.32797781,0.11788915,0.75154373,-0.34894053,15.961549,0.65187886,0.52741399,-0.083052227,-3.1011044,-1.304905,0.61344837
0.041522617,0.08817233,-3.449608,0.010943234,0.11834517,1.2494082,0.31047899,1.4797247,4.8265369,-0.71160569,0.28916072,4.0217287,-0.082883208,-1.1998885,0.080319124,-0.41391176,-0.024622632,-3.7207897,0.8330979,-2.560015,0.90532947,-0.4797214,0.064902857,-4.3041065,-1.0546176,0.30760839
0.10736792,0.047839217,-2.3263781,0.062446626,-0.14102347,-0.45360001,-0.86757051,0.28214992,6.4884514,-3.7602537,0.043303389,-0.95960476,-0.080085669,-1.2420509,0.11041478,0.229423,0.15431078,-1.594574,-0.60624693,-0.31982708,0.65999472,-0.13458328,0.23783995,-1.7598914,-2.9725699,0.27101292
0.31686796,0.0063407745,-0.64953448,0.026386487,0.35560975,-0.37696946,0.43204678,0.16305802,9.8815427,-2.535775,0.3905628,0.9676602,0,-1.7291495,-0.13174998,0.36417916,0.15485006,-0.20392922,-0.27591866,-0.59943624,0.45034702,0.0065870298,-0.14068611,1.0922336,-1.3034254,0.054962475
0.23675007,0.012785,0.47707623,0.33274342,0.10566565,0.97734544,-0.14473063,0.025348311,10.579737,1.1122396,0.37936845,0.94780107,0,-0.48707342,-0.42225744,0.17844908,0.15454907,-0.32629284,-0.47126699,-6.263135,0.6734226,0.079147543,-0.27290873,-0.75951972,-1.7143977,-0.14537094
-0.39520607,0.32327546,0.23723564,0.25775547,0.24762988,-1.530912,0.078648937,-0.37847889,8.9747021,2.4223886,0.026909915,2.3568667,-0.028506128,-0.37592032,-0.23685799,0.0023699988,0.12696505,-1.2917099,0.15390801,-7.5899618,0.57434208,0.13695298,-0.1995973,-0.062335716,-2.0437294,-0.19451051
-0.56682739,0.20724782,0.24343059,-0.090835706,0.14292224,1.6967091,1.0958312,-1.6197267,18.49357,0.25236057,-0.062338079,-1.2325048,0,-0.67094874,-0.043452408,0.86740682,0.17688059,-1.4149874,0.29118485,-2.9778832,-0.64588324,-0.13701726,-0.16531524,-0.033829588,-0.1489668,0.076134636
-0.11098237,0.14426703,3.0811908,0.21223104,0.42021451,1.1771888,0.90411275,-1.7581913,-16.110637,-1.5833414,-0.030107781,2.0605856,-0.033847027,-0.28381654,0.32086185,0.6291064,0.18299259,-0.93491273,-0.0065259637,-3.8405509,-0.77791089,-0.35219217,-0.17233642,-0.58454697,1.0488985,0.16738189
0.3822577,-0.077905163,3.7121045,0.11945164,0.62597428,1.0837726,1.5980251,-0.72086551,-31.512424,-1.9015117,0.22703996,1.765048,-0.0076321385,0.11557784,0.3318163,0.36109177,0.19794364,1.9895386,0.085928492,-0.44601,-1.4013241,-0.69732213,-0.17233642,-3.053952,0.0083909958,-0.0049396937
0.79622452,0.097208647,5.296863,0.0061100424,0.15355776,1.3610336,0.48626014,-0.41587015,-52.296763,-0.53005941,-0.023550115,-2.5187223,0.027535115,-0.78271688,0.11931213,-0.12289639,0.30148118,3.7346604,0.6686335,-14.84814,-1.5277079,-1.2140826,-0.034521944,-6.8248999,-2.8519545,0.2415883
0.3426803,-0.090750503,-0.30078293,0.0637588,0.24243876,-0.030205465,1.5065477,0.37748271,-59.152421,-0.17473384,-0.32370309,-4.1286274,-0.070578915,-0.94051728,0.15617343,-0.21589282,0.21786071,1.4604768,-0.16705509,-13.516942,-2.5718167,-1.06529,-0.097922495,-0.63741535,3.2983772,0.085430676
0.23349738,0.23310541,3.8947344,0.090421439,0.56093853,0.90158421,0.46055825,-0.84175655,-48.319181,1.7348464,-0.096868628,0.45067235,0.11787641,-0.1544878,0.11682634,0.56746803,0.1718298,0.71275716,0.30011014,7.651909,-1.3029616,-0.57502728,0.0010651467,1.1828581,2.9700237,0.47615086
-0.95323408,-0.023526744,-9.461783,0.17639491,0.83694772,-0.49750126,-0.77079204,-0.034414286,-35.985828,0.60516711,-0.030707451,-1.7610228,0.14904201,0.28024002,-0.63056128,0.30026531,-0.021800639,-1.3700871,0.11324617,11.746234,0.021646342,-0.40010308,0.07623306,0.6107342,1.1696284,0.47942997
-1.1278684,-0.11468644,-20.580772,0.20919864,0.54128112,0.07811693,1.6567986,1.0402123,-20.168242,-1.0701641,0.23025499,-2.3612699,0.28743794,-0.13767472,-0.68445602,-0.12590052,-0.049115513,-3.505908,-1.2005644,-5.8036534,0.74341479,-0.83061255,0.0017036173,-2.4523477,2.6170142,0.87262093
-0.10524859,-0.12004855,-23.690895,0.38790969,0.011919457,0.73521668,-0.47157416,0.25933476,-15.340934,-1.1261741,-0.16832572,-2.9641316,0.13958606,-0.29958265,-0.50184629,0.096223426,-0.075148505,-4.6561282,0.8869332,12.237668,0.82265408,0.38538377,0.040746539,-1.6022367,-1.6480052,0.47440694
-0.081174518,0.0058202282,-8.7161935,0.20851047,-0.13274425,-0.102937,-1.2520339,-1.5637151,-9.1750491,-0.84063031,0.0020286157,-2.7278192,0.02345754,-1.2663444,-0.071601237,-0.041168267,0.059322785,-1.3226614,1.7760556,11.289584,1.20242,0.48005716,0.17640607,-1.7216294,-6.9605814,0.71196307
0.79284838,-0.1245905,-4.5534816,0.44889754,0.22437633,0.3148773,-0.59698572,0.64233583,3.6316694,-1.7861503,0.12440055,-0.29034304,-0.26227745,-0.7554518,-0.011181869,-0.47052431,0.23617455,-0.0009813328,0.038327511,1.8223226,0.25508695,0.69144232,-0.1395948,-2.7833629,-1.2437395,0.15650964
0.12379138,0.14902742,-2.5336591,-0.18074364,0.051148763,0.0009557942,-1.3192482,1.5536364,-3.0709519,0.16843822,-0.082900449,1.4967886,-0.26953339,-1.1215703,-0.041173728,-0.71051052,0.079049934,-5.3257048,0.66628657,-9.9848375,-0.056236754,-0.23811057,-0.30449839,1.9577923,-2.255133,0.012760721
0.15750377,0.0936821,-5.5987578,-0.12247946,-0.1677003,-0.27833568,-0.80895256,-1.5207764,5.0851276,-1.4773087,0.30186809,-0.32717448,0.10310697,-1.0736535,-0.016364932,-0.10475039,0.15492978,-1.2519506,-0.21269709,-1.2118772,-0.21190961,-0.2789463,0.073982465,-0.76141839,-0.51124472,0.022166709
0.30149727,0.18264214,0.78703284,0.18784713,0.33320679,0.081650122,0.79084823,-0.35329555,3.8236108,-2.5165048,0.3599185,0.52948887,0,-1.6906431,0.12122184,0.2565474,0.092185306,-0.59898044,0.30441153,-2.1208406,0.024582271,-0.053005216,-0.24076516,-1.0446954,-0.27063664,0.10584466
0.24344109,-0.00015685046,-0.54923652,0.34921757,0.2418202,-0.50457215,-0.34264274,0.44081665,-3.0596297,3.756244,0.22124174,0.39806079,0,-0.77266938,-0.20120198,0.26409315,0.12439514,-0.28335424,-0.20732643,2.9569661,-0.069474592,0.048380804,-0.16357432,-0.47226339,-1.2384674,0.0832477
-0.16752638,0.3420365,0.29639752,0.029342941,0.52855903,0.17334826,0.50840153,0.0076961892,6.0601436,2.4267461,0.046926984,5.0323118,-0.028506128,-0.57744725,0.010206615,0.18358745,0.12108041,-3.8348063,0.22564611,-0.79229183,0.50013707,0.26663608,-0.1995973,-0.062335716,-1.1730514,-0.11326189
-0.68220591,0.14019951,2.9854463,0.11978411,0.43240819,0.68459125,0.55361613,-1.8608684,2.446626,0.74724876,0.30949686,-2.2797693,0,-0.41025273,-0.29815955,0.96366508,0.21228583,-0.25873301,0.29118485,-8.176763,0.018619067,-0.060886346,-0.13691745,-0.47226339,-0.2206266,0.0012037136
-0.0015579818,0.11433058,1.3059892,0.25897922,0.28823246,0.27584174,0.85147722,-0.9584547,-24.218309,-1.8954553,0.31204678,-0.039075412,-0.033847027,-0.16981427,0.14915331,0.63627869,0.2721623,-0.23189344,0.0006664988,-1.215558,-0.74397955,-0.056698916,-0.2037578,-0.19021797,1.6326622,0.17208892
0.032940003,-0.02961142,2.0733884,0.17859518,0.29256104,0.30204034,1.4693259,-1.1151874,-29.043369,-1.19464,0.0642266,-2.1796665,-0.0014203978,-0.21362487,0.10158398,0.032803675,0.2447858,2.1930576,-0.025155659,-1.0144613,-1.0245109,-0.0055822294,-0.094931229,0.059743652,0.58835558,0.07445371
0.50834805,-0.10346909,-1.7364056,0.12098312,0.34876368,-1.4067859,1.2546555,-1.2661651,-37.070398,0.57876927,-0.30728053,-4.6716927,-0.085967769,-0.051209825,-0.12093274,-0.24627174,0.40583073,1.9111807,0.35449547,-9.883482,-0.43403122,-0.32072444,-0.059819164,0.11460725,-4.1827918,0.19632449
0.11884886,-0.27574683,-8.0312564,-0.050848758,0.0060183742,-2.0853546,0.010662719,-1.4374247,-39.878532,-1.3828049,-0.26207467,-2.3550992,-0.25358586,-0.44425987,0.22952285,0.24976496,0.087846806,2.5436841,-0.79665567,-16.651451,-2.1168389,-0.58628791,-0.093935423,-0.25959912,2.1730506,0.090618233
0.14244865,0.056811381,-5.4067868,0.22764392,0.45555357,-1.4703851,0.11506253,-0.82314941,-40.746433,-1.2608237,-0.8285084,-2.3774734,0.12782091,0.48232646,0.08595783,0.65972533,0.36847163,3.3963277,-0.025552657,-14.267705,0.030685101,0.017744357,0.080592089,1.2246618,5.0431361,0.45100483
-1.3320273,0.0071075617,-10.942045,0.10383607,0.36024262,-0.84447685,1.4733179,-0.55806755,-43.403641,0.57342247,-0.90934422,-7.8527761,0.30185892,0.52640505,-0.51277838,0.031562244,0.19936142,0.67767342,-1.7512179,-16.861844,0.91049286,0.24510137,-0.15740271,-2.4422888,2.123879,0.59017479
-1.0455137,-0.049481709,-9.2885201,0.15689969,0.17142408,-1.3320697,1.3859193,0.3191817,-51.419754,1.4092014,-0.65300803,-11.984291,0.076236426,-0.032662476,-0.51081163,-0.011923693,0.035300911,-4.3956173,-1.5980858,-15.346997,0.3370394,-0.59003667,-0.12835502,-3.1260647,-2.867374,0.68099443
1.17022,0.2070031,-11.617454,0.34586856,-0.040786296,-0.596626,-0.083567472,-1.180067,-42.354923,-0.7164344,-0.44797697,-10.253626,-0.18058057,0.16610535,-0.20000974,-0.00049907223,0.092732632,-2.7775677,1.6968672,2.2088651,0.74955639,0.029642637,0.076679584,0.87303298,-2.9509133,0.51789261
1.0328645,0.33050553,-7.8742889,0.34730884,-0.46487012,-2.1711705,0.49002443,-0.25538552,-26.851117,-1.4791253,0.19638019,-10.472989,-0.29063012,-0.42562394,-0.23208194,-0.18649841,0.14443493,-1.8139676,1.5845088,4.7449106,1.6145256,0.27202094,-0.027027059,4.923487,-3.1601966,0.58251086
0.80022162,0.082457784,-8.0055945,0.49185811,-0.19385902,-0.9326374,-2.162707,1.2201491,-19.019245,-4.1381101,0.29244031,-7.4238303,-0.012328232,-0.58980332,-0.25865454,-0.32298328,0.16392443,-2.0875415,1.8290774,1.5703527,-0.024443368,0.52737523,0.17690137,1.0440794,-1.2621454,-0.025343012
0.49909694,-0.38306201,-2.3802393,0.20222876,-0.094093299,-0.53265061,-2.2323717,0.035265702,-18.346407,-0.43836258,-0.10883836,-0.69857631,0.13932915,-0.8668604,-0.18306993,-0.3513311,0.035921136,-9.1508497,0.72071118,3.9555913,0.68723146,-0.44821831,-0.037290736,-1.1369603,-6.170867,-0.10363863
0.027266772,-0.23941505,-6.4275819,0.27516544,-0.097821715,-0.51273614,-1.5934522,-0.65830033,-6.1036043,2.2053518,0.33923124,-4.7295204,0.13918158,-0.69763538,-0.14100194,-0.21098513,0.095498413,-3.4754535,0.0078301818,-4.4710672,-0.072014254,-0.39246743,-0.14130115,-2.2721272,-1.7926109,-0.1241104
-0.036349277,-0.19229927,-1.1768608,0.049779146,-0.12755227,0.047658781,-0.4025778,0.92198748,7.2410898,-1.3740314,0.46321996,-2.0732277,-0.035167253,-0.72033908,-0.22254034,0.033892094,0.02817962,-1.3829986,0.39272033,-6.612136,0.13661221,-0.063588535,-0.38382203,0.42937236,-5.8280048,0.10584466
-0.21276971,-0.12791616,-0.51344707,0.0095745249,-0.010806977,-0.7222903,0.31698092,1.4613213,11.480622,1.849914,0.15166132,3.223904,0,0.019921609,-0.10175475,0.033892094,0.05575783,-0.17146582,-0.2444132,11.084619,-0.10644535,0.44640487,-0.09860734,0.069745883,-5.821148,0.13049208
0.23500412,0.30569421,1.6886281,-0.14306171,0.20056814,0.32950963,-0.13267999,2.3608118,4.4320843,1.6973684,0.014269281,6.3737277,-0.028506128,-0.51544486,0.079495135,0.033892094,0.14926003,-2.4067582,0.32011799,-1.877103,-0.14820378,0.27918545,0,-0.062335716,-1.3213878,-0.11326189
-0.55434531,0.11241777,3.0664001,0.065882171,0.41244362,1.1048246,0.618082,-1.2084056,-7.3859113,0.39512923,0.27461318,-4.1277777,0,-0.32917975,-0.028171544,0.67715892,0.15704997,0.86861146,0.35836662,2.243581,0.28143649,0.25622782,-0.062679848,0.4277984,-0.031155849,0.0012037136
-0.45252116,0.053263844,0.30547745,0.094606498,0.52822629,1.0444907,0.63850356,-0.45259171,-24.221482,0.42434829,0.03484717,-5.4048268,0,0.052446798,0.18611883,0.62772261,0.27774635,1.9283996,0.0913778,-4.6626175,0.32245179,0.39770767,-0.062679848,-0.091785604,3.2478022,0.24701985
0.063642863,-0.12490321,-1.0158357,0.05669563,0.78742711,1.1061719,-0.30015608,-1.2149809,-31.726447,-0.90994523,-0.36167027,-7.3945928,-0.0014203978,-0.22759323,0.31247708,0.49266336,0.11711214,3.1265658,0.28825368,-12.323046,-0.039114984,0.73998413,-0.12661786,-0.96365911,2.2915042,0.21752576
0.29212843,-0.27760891,-3.8584068,0.12035108,0.053004871,0.45053924,1.2597278,-2.1407727,-29.629991,1.217485,0.12870394,-2.3246187,0.091370929,-0.49285861,0.27891171,0.21524271,0.18603667,3.8380886,0.75803648,-18.682608,0.42812825,0.66516982,-0.12683218,0.56569008,0.27999371,0.34489326
0.49895272,-0.13967676,-9.3805229,-0.25959788,0.078695636,-1.1627737,-0.86648214,-2.6044857,-24.859986,1.9164899,0.015161174,-5.651031,0.15378329,0.11682653,0.12864057,0.42103991,-0.12723228,2.8024667,-0.95177546,-20.343339,-0.86507913,0.48698187,-0.18581884,-0.49345853,2.6436668,0.32692024
0.12983171,0.015163205,-0.84774402,0.21921618,0.35965623,-1.8192672,0.292646,-2.5575452,-31.070798,0.8486059,-0.51979734,-12.29107,-0.024099183,0.46135301,0.13820598,0.3341249,-0.19612703,1.7010245,-1.0227871,-27.32489,0.30928703,0.46135179,0.090121274,-3.1694547,3.7025664,0.57885306
-1.7005086,-0.028286635,1.4602816,-0.088188939,0.097730297,-1.6372543,0.64346435,-2.2695019,-38.549439,-2.9946524,-0.30665463,-12.507003,-0.050041565,0.24966166,-0.12793556,-0.035892552,-0.26754098,-4.5119165,-3.0803725,-8.6303995,0.64745643,0.33602891,-0.19357714,-5.8175339,1.9259515,0.22998915
-0.19186098,0.047131304,-4.2788525,0.17370247,0.13079182,-2.7167494,-0.5115332,-0.80688094,-56.771266,-1.9678258,-0.22002762,-11.368706,0.043398731,0.88215112,0.20588465,-0.067844056,-0.050990249,-3.3887657,-1.0100714,-16.778246,0.63624897,0.039191748,-0.12034774,-5.1169271,1.5771777,0.1831826
1.6243801,0.21307706,-6.2468016,0.25712983,0.066817627,-2.2231371,1.956258,0.53910293,-63.748845,-1.7428495,-0.98668525,-12.175941,-0.018749941,1.5350621,0.27336546,-0.0038930536,0.023254463,-2.079126,2.6737603,-8.6421554,0.25554537,0.16951923,0.14388937,-5.7536091,2.7082597,-0.025836736
0.61550129,0.096396757,-6.3502277,0.03975421,-0.47864453,-3.0996495,-0.75783808,-0.51218891,-58.180515,-1.1851883,-0.79479932,-13.89568,-0.25068616,0.34837711,0.17723763,-0.1492232,-0.052759431,-2.7816058,2.6418977,-8.2699643,1.0149868,0.38222661,0.038697525,1.0656689,-1.0142116,-0.23874544
0.55155974,0.032640028,-7.4770528,0.39018816,-0.21196395,-2.2611144,-1.1476231,-0.096976442,-60.215304,-0.80233465,-0.32742596,-11.942423,-0.17374322,-0.66165222,0.14043227,-0.4239722,0.084847431,-5.745453,0.10648795,-21.379896,0.58267436,-0.15242089,0.14487099,-0.38961196,-6.011139,-0.32103631
0.23101285,-0.24644079,-6.4818689,0.33877862,0.10204588,-1.7109434,-0.35143747,1.4687053,-51.858166,0.79493163,-0.42949009,-8.258962,-0.23244745,-0.85818487,0.029086737,-0.2572316,-0.087425864,-7.3046482,-0.63916608,-13.965608,0.27808021,-0.60536161,0.11104887,-0.2095551,-5.2817054,-0.1744215
0.21766785,0.24007883,-1.9352332,0.39814695,0.17754849,-2.5122156,-2.1491652,0.68267512,-39.730521,0.68750362,0.088099898,-11.183383,-0.15498205,-0.73025826,-0.24399409,0.039339678,0.00080315023,-3.322665,0.012273724,-6.3277001,-0.82361444,-0.11308604,-0.05317973,-0.20452934,-3.0588164,-0.042861789
0.12169956,0.27259736,-1.562021,0.071170106,0.058985891,-2.0953998,-1.0779233,-0.52803621,-36.186397,1.6385238,0.60722564,-5.0065555,-0.097520408,-0.40304099,-0.073923743,0.033892094,0.05632848,-0.48350766,0.22104828,-5.8911297,0.13198481,0.30950614,-0.19543387,-0.65840487,-4.9790602,-0.075529602
-0.053725526,0.31380398,-1.8735849,0.16633305,0.085633252,-0.75107433,-1.8123421,0.8641185,-28.411193,2.5626931,0.31307361,1.1504109,-0.033847027,-0.04548932,0.019178101,0.033892094,0.086476086,-1.9884095,-0.29698541,0.31009635,-0.12522013,0.35895266,-0.26694617,0.4671048,-4.0616977,-0.058904453
0.084280832,0.13998179,0.061162798,-0.15403989,-0.14460976,-0.011707228,-1.2935978,0.83550019,-7.8730304,0.78439176,0.069975589,1.1389867,-0.028506128,-0.46608701,0.04249638,0.033892094,0.14982436,-2.6944344,0.19532817,0.69032076,-0.062850852,0.078012082,0,0.041239755,-0.7321343,-0.11326189
-0.10094191,-0.031016035,-4.8309376,0.065529827,0.063300203,0.43757024,-0.42513435,0.64950513,3.279409,0.36604335,0.067541387,-2.4008287,0,0.4650481,0.0084997478,0.30654144,0.030236039,1.3246952,0.24004497,-6.7477279,0.49057212,0.3321292,0,0.46884963,-0.090678509,-0.34908437
-0.27213203,-0.092082769,-5.5895917,0.16855893,0.11869415,1.4912587,-0.057161426,0.68503494,-8.7058754,1.3266093,0.10704177,-3.5809581,0.071241856,0.36618528,0.0084997478,0.45232127,0.062450697,0.049183067,0.034086399,-23.256914,0.59749838,0.87936744,0.032226109,-0.76114016,-0.22579518,-0.14537094
-0.084922255,-0.12524851,-6.4691377,0.021747876,0.32536824,1.5989982,0.27813454,-1.0453943,-14.411503,-0.19430345,-0.18914793,-12.034865,0.035974431,-0.13608866,0.10139064,0.69324716,0.059881301,0.5011918,0.35078282,-36.778058,1.0304897,0.85545728,-0.033184725,-0.70917703,1.6000131,-0.10443927
0.013227117,-0.23735626,-1.7034496,-0.01111351,0.004585971,1.7371197,0.46982301,-1.6345573,-17.048488,-0.55943943,-0.30250194,-11.907019,0.083040163,-0.3118924,0.11557067,0.43871946,0.1244564,0.27883077,0.59174285,-30.381707,0.57283973,1.0372652,0.059402774,-1.8571476,1.4163887,-0.16248337
0.052184576,-0.24557104,-5.7428592,-0.35988306,-0.34547094,1.1549982,-1.0666593,-3.1932492,-15.815922,-0.77868247,-0.17538121,-11.971344,0.055296325,0.11833154,0.18952309,0.28297512,0.063765964,-0.095020019,-0.88545507,-23.493572,-0.20873115,0.60339326,0.12591789,-1.2956053,0.34462904,-0.14616126
-0.096497467,-0.42035062,-10.382456,0.010296105,-0.51707184,0.1254101,-0.96401988,-2.5011167,-31.126382,2.0256626,-0.20842086,-11.084698,0.025079791,0.29332284,0.47441464,-0.016327141,0.092000766,-1.9058325,-1.505977,-25.263887,0.41978853,0.33963004,0.44237796,-3.1694904,-1.3255261,-0.27025911
-0.92330345,-0.4072177,-14.641058,-0.14062196,-0.20109138,-0.86859159,-0.40870556,-2.9504787,-34.15175,1.6524286,-0.10735391,-8.3819922,0.09617408,-0.048484139,0.35742688,-0.10408724,0.092635795,-3.0143685,-0.87003552,-14.922987,-0.071744604,0.35512247,0.47431824,-5.9584225,-0.88332576,-0.54883604
-1.6975887,-0.15704339,-15.973028,0.014791422,-0.22860474,-1.2375216,-1.5552576,-2.0197149,-36.563663,-0.34711034,-0.29321331,-5.0971557,0.29506964,0.1293692,0.63504361,-0.037946794,0.054800371,-1.0116896,0.16041628,-9.5945681,-1.2250944,0.61068036,0.5073283,-10.747283,-1.7292434,-0.78079688
-1.0861409,-0.050289384,-12.207519,0.036810082,-0.37649556,-1.4003494,0.12174471,-1.5526188,-46.520136,-0.46999635,-0.23145503,-8.4404121,0.1476598,0.23546123,0.43038587,0.030913792,-0.24127169,-2.0498357,2.7776819,-15.877544,-0.63455903,0.020998167,0.43220644,-8.4221092,-1.5204514,-0.57058297
-0.50812288,-0.067311012,-5.9507735,0.067073539,-0.57759335,-2.0986255,-1.2136979,-1.0766085,-51.020108,-1.1545946,-0.37735283,-6.3008743,0.19432388,0.27555952,0.29067537,-0.32140922,-0.29808807,-5.3837405,2.2934147,-17.961234,-0.73639516,-0.12443318,0.25360949,-3.0536937,-2.3935787,-0.70411413
0.0064539875,0.075812776,-2.0546569,0.17835054,-0.2463147,-2.2080167,1.1238603,-0.35285932,-50.862736,-1.0066922,-0.37308011,-4.3804655,-0.050239267,0.15365588,0.0012019013,-0.49212361,0.050130004,-8.6156411,0.7669012,-18.427489,-0.31457651,-0.75592698,0.15955752,-2.6787412,-2.9870472,-0.57449907
0.099027401,0.036037648,-9.478169,0.004329058,-0.33798694,-1.7794185,-1.1674773,-0.15310308,-45.340157,-1.011793,-0.49004937,-3.3653825,-0.20950074,0.22574637,-0.0030947562,-0.18741316,-0.091764248,-4.6657109,1.1796036,-24.267317,-0.39897462,-0.62240673,-0.076271514,-3.3438644,-1.6119357,-0.49236305
0.49841096,0.27922081,-2.4990995,-0.019867499,-0.14361369,-0.4919006,-0.25143302,1.2640153,-46.111646,-0.65734842,-0.57090613,-5.1713918,-0.17263843,-0.46911349,-0.10529658,-0.11143805,-0.026542414,-2.6295055,-0.12796029,-14.667927,-1.0961343,-0.64421789,-0.17228251,0.8162316,0.52355236,-0.39292685
0.029331316,0.19043088,-2.8052766,0.096656757,-0.11298464,-0.88442011,-0.17049008,-0.12698501,-41.698307,-1.7685472,0.32717497,-1.3626344,-0.063673381,-0.94770306,-0.2704128,-0.076631206,-0.1088997,-0.45921009,-0.14846391,-17.940591,-0.23693482,-0.1561066,-0.16401248,-1.3907367,-0.17804949,-0.18408658
-0.11546077,0.066101758,-3.833216,0.14054542,0.13973709,-1.5645587,-0.65225542,1.1162803,-31.791608,0.17197819,0.37135772,2.383756,-0.028506128,-0.60358465,-0.51758178,-0.076631206,0.014228991,-1.1072299,-0.14325441,-9.4394327,-0.17728518,-0.1846304,-0.26532595,-0.3791076,-1.7055906,0.094533722
-0.10890369,0,-2.4708384,0.081448218,0.0340425,-0.76189953,-1.4654303,0.52999044,-17.186178,0.34821327,0.47573654,0.037245517,-0.028506128,-0.1883109,-0.19640328,0,0.086894974,-0.66572203,-0.061770146,-6.8574534,0.024616861,0.028151862,-0.031258467,-0.50076952,-3.1772474,0.076134636
-0.27138735,0.097555175,-4.7636493,-0.045016847,-0.059642488,0,0.35706245,0.63465039,-4.0548606,-0.21451492,0.15707759,1.8152342,0,-0.12761405,0.060461308,0.036925217,0,0.14540723,-0.039926739,-8.3237285,0,-0.0015503845,0,0.4277984,0.50109589,0.040425822
-0.23328557,0.12533691,-3.2116819,-0.045016847,-0.028151862,0,0.54278585,0.66920345,-5.1231714,-0.6548781,0.15707759,1.7535428,0,-0.12761405,0.060461308,0,0,0.11542668,0.05454514,-6.2495014,0,-0.0015503845,0,0.27787504,1.3222753,-0.074930922
-0.23328557,0.12533691,-3.2116819,-0.037649795,-0.028151862,0,0.11941249,0.70448457,-5.1231714,-0.60735379,0.10955327,0.98537716,0,-0.12761405,0.060461308,0,0,0.11542668,0.05454514,-4.0064306,0,0.028151862,0,0,0.30988698,-0.074930922
-0.19866252,0.12533691,-3.2116819,-0.037649795,-0.028151862,0,0.085930074,0.70448457,-4.8279994,-0.57344242,0.10955327,0.98537716,0,-0.12761405,0,0,0,-0.11099159,0.05454514,-0.1612168,0,0.028151862,0,0,0.30988698,-0.074930922
-0.19866252,0.12533691,-3.2116819,-0.037649795,0,0,0,0.46425292,-5.8571879,-0.57344242,0.10955327,0.98537716,0,-0.12761405,0,0.036925217,0,-0.11099159,0.17933496,1.6540327,0,0,0,0,0,-0.074930922
-0.19866252,0.094094329,-3.2116819,-0.037649795,0,0,0,0.46425292,-4.7511249,-0.57344242,0.10955327,0.98537716,0,-0.096890073,0,0.036925217,0,-0.11099159,0.17933496,1.6540327,0,0,0,0,0,-0.074930922
-0.19866252,0.034944081,-3.2116819,-0.037649795,-0.031490626,0,0,0.39178677,-4.7511249,-0.57344242,0.10955327,0.98537716,0,-0.096890073,0,0,0,-0.18802645,-0.094471879,2.7299735,0,0,0,0,0,-0.074930922
-0.19866252,0.094094329,-3.2116819,-0.037649795,0,0,0,0.39178677,-3.7324388,-0.57344242,0.10955327,-0.067751469,0,0.077741827,0,0,0,-0.18802645,0,2.9976911,0,0,0,0,0,-0.074930922
-0.19866252,0.094094329,-3.2116819,-0.069710306,0,0,-0.16030255,0.39178677,-4.068566,-0.57344242,0.10955327,-0.067751469,0,0.077741827,0,0,0,-0.18802645,0,0.55397996,0,0,0,0,0,-0.074930922
-0.19866252,0.094094329,-3.73286,-0.069710306,0,-0.31208637,-0.16030255,0.29731489,-4.068566,-0.038101774,0.079512439,-1.1135297,0,0.077741827,0,0,0,-0.18802645,0,-0.67288622,0,0,0,0,0.67811046,-0.039217123
-0.19866252,0.06631259,-3.2116819,-0.069710306,0,-0.31208637,-0.12682014,0.25949066,-4.068566,-0.038101774,0.079512439,-1.1135297,0,0.077741827,0,0,0,-0.38249862,0,-0.67288622,0,0,0,0,0.67811046,-0.039217123
-0.070801917,0.06631259,-1.9995525,-0.1067796,0,-0.31208637,-0.12682014,0.25949066,-2.6166423,0.03132717,0.10955327,-0.15457524,0,0.00053430267,0,0,0,-0.38249862,0,-0.74702481,0,0,0,0,0.84321118,0.035713799
-0.070801917,0.0071623417,-1.9995525,-0.1067796,0,0,-0.12682014,0.22752551,-2.6166423,-0.038101774,0.079512439,-0.092883801,0,0.00053430267,0,0,0,-0.22827003,0,-3.1616908,0,0,0,0,0,0.035713799
-0.035498564,0.0071623417,-1.2934855,-0.069710306,0,0,-0.12682014,0.10368044,-2.6166423,0,0.041410665,0,0,-0.025238912,0,0,0,-0.22827003,0,-3.9187614,0,0,0,0,0,0.035713799
-0.035498564,0.0071623417,-2.5056149,-0.037649795,0,0,0.033482413,0.067849695,-2.280515,0,0.041410665,0,0,-0.025238912,0,0,0,-0.22827003,0,-1.4726001,0,0,0,0,0,0.035713799
-0.16248366,-0.027781739,-0.40061218,-0.0023582645,-0.031490626,-0.68477524,-0.040890067,0.19240667,-0.84148426,0.13936339,0,-0.34200538,0,-0.12761405,0.060461308,0.036925217,0,-0.41712168,-0.039926739,1.1055898,0,-0.029702246,0,0,0.26782581,0.11535674
-0.16248366,-0.027781739,-1.1513552,-0.0023582645,-0.031490626,-0.37268887,-0.16030255,0.10311466,0.049624726,0,0,-0.81763345,0,-0.097424375,0.060461308,0,0,-0.15344685,-0.094471879,-4.709261,0,-0.029702246,0,0.4277984,-0.29993937,0.035713799
-0.1278606,-0.027781739,-1.1513552,-0.039427563,-0.031490626,-0.31252961,0.077347404,0.033280487,-1.4386389,-0.082077381,0.047524317,0.61081509,0,-0.12266329,0.060461308,0,0,-0.1188238,-0.094471879,-4.2452951,0,-0.029702246,0,0.4277984,0.28785279,0
-0.16248366,-0.027781739,-1.1513552,-0.039427563,-0.031490626,0,0.11082982,0.033280487,-2.0464887,-0.11598875,0.047524317,-0.19078889,0,0.051968613,0.060461308,0,0,0.10759448,-0.094471879,-4.1235158,0,-0.029702246,0,0.14992335,0.059554044,0
-0.16248366,-0.027781739,-1.1513552,-0.039427563,-0.028151862,0,0.16327748,0.24709167,-0.4590751,-0.11598875,0.047524317,0.036617925,0,0.051968613,0.060461308,0,0,0.14139234,-0.12478982,-1.084741,0,-0.0015503845,0,0.14992335,0.37380497,0
-0.16248366,0.062611094,-0.52117802,-0.039427563,-0.028151862,-0.31208637,0.16327748,0.31955782,-1.3515037,-0.068464428,0,-1.0738279,0,0.021244639,0.060461308,0.036925217,0,0.10759448,-0.12478982,-2.4283994,0,-0.0015503845,0,0.14992335,-0.1052592,0
-0.16248366,0.062611094,-0.52117802,-0.069129809,-0.028151862,-0.31208637,0.077347404,0.31955782,-1.2641267,-0.068464428,0,-1.0738279,0,-0.12266329,0.060461308,0,0,0.18462933,0.05454514,-1.0822908,0,0.028151862,0,0.14992335,-0.1052592,0
-0.16248366,0.062611094,-0.52117802,-0.039427563,-0.031490626,-0.31208637,0.077347404,0.31955782,-1.5639141,-0.068464428,0,-0.020699273,0,-0.096890073,0.060461308,0,0,0.14820307,-0.039926739,0.26136767,0,-0.029702246,0,0,-0.13870505,0
-0.16248366,0.062611094,-0.52117802,-0.039427563,0,-0.31208637,-0.34602596,0.38939199,-1.5639141,0.10448751,0,-0.020699273,0,-0.096890073,0.060461308,0,0,-0.11283827,0.05454514,0.26136767,0,-0.029702246,0,0,0.67811046,0
-0.1278606,0.062611094,-0.52117802,-0.039427563,0,-0.31208637,-0.34602596,0.24363222,-0.11199033,-0.43085313,0,-0.082390708,0,-0.096890073,0,0,0,-0.30947865,-0.12478982,-1.7464059,0,-0.029702246,0,0,0.67811046,0.035713799
-0.19866252,0.062611094,-2.474873,-0.0073670523,0,0,-0.152241,0.31649448,-0.90424173,-0.43085313,0.030040832,1.025079,0,-0.071651161,0,0,0,-0.15525006,-0.12478982,-0.64635317,0,-0.029702246,0,0,0.81681551,0.035713799
-0.19866252,0.031368509,-2.474873,-0.039427563,0,0,-0.31254355,0.36364535,-1.1283786,-0.46895491,0.068142606,-0.12093345,0,0.077207525,0,0,0,-0.15525006,-0.12478982,-2.1189532,0,-0.029702246,0,0,0,-0.074930922
-0.16316395,0.059150248,-2.4393745,-0.039427563,0,-0.31208637,-0.34602596,0.3956105,-1.1283786,-0.36142419,0.030040832,-0.067751469,0,0,0,0,0,-0.15422859,-0.12478982,-1.6917867,0,-0.029702246,0,0,0.02203172,-0.074930922
-0.16316395,0.094094329,-3.6973614,-0.039427563,0,-0.31208637,-0.34602596,0.30113862,-1.1283786,-0.0025841938,0.068142606,-0.067751469,0,-0.025238912,0,0,0,-0.15422859,-0.12478982,-1.6917867,0,-0.029702246,0,0,0.02203172,-0.074930922
-0.16316395,0.094094329,-3.9803072,0,0,0,-0.18572341,0.2294652,-0.33612722,-0.033911364,0.030040832,-0.067751469,0,-0.025238912,0,0,0,-0.15422859,-0.12478982,-3.6897079,0,0,0,0,0.98191623,-0.034510086
-0.1278606,0.059150248,-1.4950752,-0.037649795,0,-0.31208637,0.033482413,0.22644612,-0.33612722,-0.033911364,0.030040832,-1.1135297,0,0,0,0,0,-0.15422859,-0.12478982,-2.4628418,0,0,0,0,-0.13870505,0.0012037136
-0.16248366,0,-0.40061218,0,-0.031490626,-0.31208637,0.11941249,0.089292004,-0.96874079,0.13936339,0,-1.1135297,0,-0.12761405,0.060461308,0.036925217,0,-0.26187161,0.084863081,-0.58091251,0,0,0,0,0.026395665,0.11535674
0,0,-0.11766633,0,0,-0.37224562,0.085930074,0,-2.5069497,0,0,-0.030079627,0,-0.19987081,0,0.036925217,0,-0.039222109,0,-7.7169041,0,0,0,0,0.026395665,0.039222109
0,0,0,0,0,-0.31252961,0.11941249,0,-3.9198511,0,0,-0.63020331,0,-0.19987081,0,0.036925217,0,0,0,-5.6092354,0,0,0,0.27787504,0.32269351,0
0,0,0,0.029702246,-0.031490626,-0.31252961,0.11941249,0.026420465,-2.6452219,0,0,0.57419716,0,-0.1746319,0,0.036925217,0,0,-0.094471879,-3.6271581,0,-0.029702246,0,0.27787504,0.058834085,0
0,0.059150248,-0.63017721,0.029702246,-0.031490626,-0.24817807,0.085930074,0.09888661,-1.0186861,0,0,1.684643,0,-0.14885869,0,0.036925217,0,0,-0.094471879,1.4712704,0,-0.029702246,0,0.27787504,-0.44979808,-0.074930922
0,0.090392833,-0.63017721,0.029702246,-0.031490626,0,0.085930074,0.09888661,-2.1247491,0.28480264,0.047524317,1.9120498,0,-0.17958266,0,0.036925217,0,0,-0.094471879,0.12516176,0,-0.029702246,0,0,-0.79070732,-0.074930922
0,0.031242585,-0.63017721,0.029702246,-0.059642488,0,0,0,-2.1708225,0.28480264,0.047524317,0.80160398,0,-0.14885869,0,0.036925217,0,0.036426269,-0.2192617,0.12516176,0,-0.0015503845,0,0,0.033445852,-0.074930922
0,0.031242585,-1.1513552,0.029702246,-0.059642488,0,0.50930344,0.17039747,-3.6227462,0.21633821,0.088934983,0,0,-0.14885869,0,0.036925217,0,0.33668971,-0.2192617,3.6079856,0,-0.0015503845,0,0.14992335,0.85026136,-0.074930922
-0.034623058,0.031242585,-1.1513552,-0.0073670523,-0.059642488,0,0.085930074,0.32952365,-2.1470647,-0.01150123,0.088934983,-0.092883801,0,-0.1746319,0.060461308,0,0,0.41289937,-0.039926739,2.1901885,0,-0.0015503845,0,0,0.81681551,-0.039217123
-0.10542498,0.0034608459,-3.1050503,-0.069129809,-0.031490626,0,-0.040890067,0.39652683,-0.010649224,-0.11598875,0.088934983,-0.15457524,0,0,0.060461308,0,0,0.064198608,-0.039926739,1.3192593,0,0,0,0,0,-0.039217123
-0.10542498,0.0034608459,-2.7015386,-0.032060511,-0.031490626,0,-0.040890067,0.43435106,1.2321738,-0.1065662,0.079512439,0.84537142,0,0,0.060461308,0,0,0.17920509,-0.2192617,-0.079202184,0,0,0,0,0,-0.035708813
-0.10542498,0.066186666,-4.7636493,-0.032060511,0,0,-0.26009589,0.47600724,2.3605524,-0.15409052,0.12703676,0.6179646,0,0,0.060461308,0,0,0.29664241,-0.12478982,-0.1365173,0,0,0,0.27787504,0,0.004712023
-0.10542498,0.066186666,-3.0303419,0,0,0,-0.099793334,0.44663405,2.3605524,-0.54684188,0.077565149,0.82572182,0,0,0.060461308,0,0,0.29664241,-0.12478982,0.77504142,0,0,0,0.4277984,-0.82117946,0.004712023
-0.034623058,0.066186666,-2.2887763,0.029702246,0,0,-0.099793334,0.55191186,1.1177294,-0.42988862,0.030040832,-0.22740681,0,-0.025238912,0,0,0,0.22641828,-0.12478982,-0.83835653,0,-0.029702246,0,0.4277984,-0.82117946,0.004712023
-0.034623058,0.031242585,-1.5519674,-0.0079475488,0,0,0.085930074,0.27504482,0,-0.50046477,0,0.81837144,0,0,0,0,0,-0.034623058,0,-3.2089166,0,-0.029702246,0,0.4277984,0.16073677,0.079642945
-0.034623058,0.094094329,-2.8099543,0.029702246,0,-0.56026444,0.033482413,0.17929525,-0.33612722,0,0,0.81837144,0,0,0,0,0,-0.034623058,0,-3.6856502,0,-0.029702246,0,0.4277984,0.053053978,0.11535674
-0.16248366,0,-0.28294585,0,-0.031490626,0,0.033482413,-0.034553064,-4.1322179,0.069934451,0,-1.0206459,0,0.021244639,0.060461308,0.036925217,0,-0.22264951,0.084863081,-3.2376544,0,0,0,0,0,0.076134636
0,0,-0.11766633,0,0,-0.37224562,0.085930074,0,-2.592132,0,0,-0.030079627,0,-0.055962886,0.060461308,0,0,0.037812746,0,-4.6063228,0,0,0,0,0.026395665,0.039222109
0,0,-0.63017721,0,0,-0.31208637,0.11941249,0,-2.7807142,0.10448751,0,0,0,0,0.060461308,0,0,0.077034854,0,-6.508083,0,0,0,0,0.026395665,-0.074930922
0,0,-0.63017721,0,0,-0.064351544,0.11941249,0.072466145,-1.3678128,0.10448751,0.041410665,-0.63020331,0,0.025773215,0,0,0,0.14725898,0,-8.7282439,0,0,0,0,1.2735875,-0.074930922
-0.038101774,0.059150248,-0.63017721,0,0,-0.31252961,0.11941249,0.3126978,-2.2602414,0.47491624,0.041410665,-0.22740681,0,-0.0049507585,0,0.036925217,0,0.18648109,0,-0.70737391,0,0,0,0.27787504,0.37308501,-0.074930922
-0.038101774,0.031242585,0,0.029702246,-0.031490626,-0.24817807,0.033482413,0.26665211,-2.2602414,0.54434519,0.041410665,0.88303901,0,-0.030723973,0,0.036925217,0,0.18648109,-0.094471879,-0.70737391,0,-0.029702246,0,0.27787504,-0.75968506,0
-0.038101774,0,-0.52117802,0.029702246,-0.031490626,0,0.11941249,0.39049718,0.088644584,0.10753072,0.041410665,1.819166,0,0,0,0,0,0.18648109,-0.2192617,-2.4501418,0,-0.029702246,0,0,-0.75726147,0
-0.038101774,0,-0.52117802,-0.0073670523,0,0,0.54278585,0.35521607,-3.5341017,0.43985767,0,1.819166,0,-0.1746319,0,0.036925217,0,0.15268323,0,-1.180622,0,-0.029702246,0,0,0.059554044,0.035713799
-0.035498564,-0.027781739,-1.3652943,-0.039427563,-0.028151862,0,-0.12682014,0.15075049,-2.0584201,0.40226141,0,0.59384676,0,-0.1746319,0,0.036925217,0,-0.086435298,0,-1.8447371,0,-0.0015503845,0,0.4277984,0,0.074935908
-0.070801917,-0.027781739,-2.3543072,-0.0023582645,-0.028151862,0,-0.12682014,0.13124787,0.1876879,0.2127895,0.085626091,0.39763232,0,-0.1746319,0,0.036925217,0,-0.24066389,0.17933496,-0.99670441,0,-0.0015503845,0,0.4277984,0,0.079642945
0,0.038404927,-1.6585991,0,-0.059642488,0,0,0.26737593,-0.9300415,-0.61677633,0.047524317,0.57419716,0,-0.1746319,0,0.036925217,0,-0.086435298,0.084863081,-1.8922999,0,0.028151862,0,0.4277984,0,0.079642945
0,0.0071623417,-3.9044174,-0.037649795,-0.031490626,0,-0.18572341,0.23039821,-0.9300415,-0.6548781,0.15707759,-0.22740681,0,-0.1746319,0,0.036925217,0,-0.04721319,-0.094471879,0.75419073,0,0,0,0.4277984,0.030472137,0.040420836
-0.070801917,-0.027781739,-1.8929209,-0.037649795,-0.031490626,-0.060159254,0,0.20397775,0.31278147,-0.62096674,0.11566692,1.023049,0,-0.1746319,0.060461308,0.036925217,0,-0.04721319,-0.094471879,-3.0416466,0,0,0,0.14992335,-0.79070732,0
-0.070801917,0.031242585,-0.74156563,-0.037649795,-0.031490626,-0.060159254,0,0.50646061,2.449197,-0.47837745,0.077565149,1.023049,0,-0.025238912,0.060461308,0,0,0.40830032,-0.094471879,-1.8400744,0,0,0,0,0.030472137,0
0,0.031242585,0,-0.037649795,-0.031490626,-0.060159254,0.11941249,0.47364894,0.87024677,-0.40894851,0.047524317,-0.030079627,0,0,0.060461308,0,0,0.40830032,-0.094471879,-3.2961569,0,0,0,0,0.030472137,0
0,0.12533691,-1.6585991,0.029702246,-0.031490626,-0.62042369,0.11941249,0.30879325,0.87024677,-0.082077381,0.047524317,1.0156986,0,0,0,0,0,0.36907821,0.084863081,-2.656085,0,-0.029702246,0,0,0.11697197,0.11535674
-0.16248366,0,-0.28294585,0,-0.031490626,0,0,-0.034553064,-2.6900277,0.069934451,0,-1.0206459,0,0.051968613,0,0.036925217,0,-0.14561465,0.084863081,-2.1376017,0,0,0,0,0,0.076134636
-0.034623058,0,-0.11766633,0,0,-0.060159254,0,0,-4.2229045,0,0,-0.030079627,0,0.021244639,0,0,0,0.0031896878,0,-5.272023,0,0,0,0,0,-0.035708813
0,0,-0.63017721,0,0,-0.31208637,0,0.072466145,-3.8867773,0,0,0,0,0.072256766,0.060461308,0,0,0.070224129,0,-2.1304158,0,0,0,0,0.67811046,-0.074930922
0,0,0,0,0,0,0,0.072466145,-2.7325989,0,0.041410665,-0.63020331,0,-0.0049507585,0.060461308,0,0,0.10944624,0,-6.0051726,0,0,0,0,1.5512987,0
0,0.059150248,0,0,0,-0.064351544,0.085930074,0.24023165,-2.7325989,0,0,0,0,-0.030723973,0,0.036925217,0,0.30026344,0,-4.8036003,0,0,0,0,0.50716347,0
0,0.090392833,0,0,-0.031490626,-0.24817807,0.085930074,0.12384507,-0.38371287,0.10448751,0,-0.32029061,0,0,0,0,0,0.26104133,-0.094471879,-2.6252498,0,0,0,0.27787504,0.06446811,0
-0.035303353,-0.027781739,-1.5101909,-0.032060511,0,-0.24817807,-0.07437248,0.12384507,-0.17007843,0.10448751,0,-0.32029061,0,0,0,0,0,0.066569161,-0.12478982,1.2242252,0,0,0,0.4277984,0.06446811,0.076134636
-0.073600338,-0.027781739,-1.6482401,-0.039427563,0,-0.30833732,0.34900089,-0.069834178,-5.1453402,0.10545203,0.038101774,0.73808597,0,0,0,0,0,-0.0064508084,0,0.25557838,0,-0.029702246,0,0.4277984,0.05713045,0.11535674
-0.10890369,-0.027781739,-2.3543072,0.029702246,0,-0.060159254,0.085930074,0.17165104,-1.0186861,-0.58190045,0.085626091,0.85295939,0,-0.1746319,0,0,0,-0.0064508084,0,-4.0307632,0,-0.029702246,0,0.4277984,-0.79070732,0.079642945
-0.035303353,0.034944081,-2.2469998,-0.0079475488,0,-0.060159254,0.11941249,0.20899031,-1.0186861,-0.21502043,0.047524317,0.79126795,0,-0.1746319,0,0,0,0.10681275,0,-4.8395874,0,-0.029702246,0,0.14992335,-0.79070732,0.040420836
-0.034623058,0,0,-0.0079475488,-0.028151862,-0.060159254,0.11941249,0.27376713,-1.0186861,-0.25053801,0.047524317,0.77152435,0,-0.1746319,0,0,0,0.22641828,0.17933496,-5.0489983,0,-0.0015503845,0,0,-0.79070732,0
0,0,-1.2121294,-0.0079475488,-0.028151862,-0.060159254,-0.066310921,0.091197284,0,0.29841559,0.071451497,0.77152435,0,0,0,0,0,0.26104133,0.17933496,0.23011707,0,-0.0015503845,0,0,0.030472137,0
0,-0.027781739,-2.3634846,0.029702246,-0.028151862,-0.060159254,-0.152241,0.09421636,0.049624726,-0.038101774,0.079512439,-0.030079627,0,-0.1746319,0,0,0,0.066569161,0.17933496,0.18948236,0,-0.0015503845,0,0,-0.82117946,0
-0.070801917,-0.027781739,-0.74156563,0.029702246,-0.028151862,0,0.033482413,0.06225121,0.95632048,-0.047524317,0.077565149,1.0531286,0,-0.19987081,0,0.036925217,0,0.14360402,0,-1.259,0,-0.0015503845,0,0,-0.82117946,0
-0.038101774,0,0,0.029702246,0,-0.56026444,0.11941249,0.026420465,-0.11199033,0.21201823,0,2.0989069,0,-0.1746319,0.060461308,0.036925217,0,0.33807619,0,-0.44431163,0,-0.029702246,0,0,-0.10768279,0
0,0.12533691,-1.6585991,0.029702246,-0.031490626,-0.56026444,0.50930344,-0.035281114,2.3605524,0.17391646,0,1.0457783,0,0,0.060461308,0.036925217,0,0.29885408,0.084863081,-4.029925,0,-0.029702246,0,0,0.08649983,0.11535674
-0.1278606,0,-0.28294585,0,-0.031490626,-0.060159254,0,-0.034553064,-2.6900277,0.069934451,0,-1.0507256,0,0.025773215,0,0.036925217,0,-0.11099159,0.084863081,-0.27140595,0,0,0,0,0.85026136,0.0012037136
-0.034623058,0,-1.0307894,0,0,-0.060159254,0,0,-2.8079611,0,0,-0.091771062,0,-0.030189671,0,0,0,-0.22807375,0,-3.4861175,0,0,0,0,0.85026136,0.004712023
-0.034623058,0,-0.91312307,0,0,-0.43659717,0,0.072466145,-1.6558247,0,0,-0.030079627,0,0.047017854,0,0,0,0.07482318,0,-1.5122305,0,0,0,0,1.0536191,0.040420836
0,0,-0.28294585,0,0,-0.43659717,0,0.072466145,-1.106063,0,0,-0.66028294,0,0.046483551,0.060461308,0.036925217,0,0.039222109,0,-2.8402641,0,0,0,0.4277984,1.3131145,0.040420836
0,-0.027781739,-0.28294585,0,-0.031490626,-0.1245108,0.085930074,0.3126978,-1.106063,0,0,-0.030079627,0,0.046483551,0.060461308,0.036925217,0,0.066569161,-0.094471879,-0.41182569,0,0,0,0.4277984,0.88243713,0.040420836
-0.035498564,0.062611094,-2.0517518,0,-0.031490626,-0.1245108,0.085930074,0.53101474,-1.3196975,-0.56925201,0,-0.35037024,0,-0.030723973,0.060461308,0,0,-0.19447217,-0.094471879,-5.2837293,0,0,0,0.4277984,1.07801,0.076134636
-0.070801917,-0.027781739,-2.8754852,-0.032060511,0,-0.30833732,-0.16030255,0.16693802,-1.3196975,-0.56925201,0,-0.25748644,0,-0.030723973,0,0,0,-0.23369428,-0.12478982,-4.4623668,0,0,0,0.14992335,0.061494395,0.11535674
-0.16316395,0,-2.0358628,-0.037069299,0,-0.30833732,0.42337337,0.059675726,-6.4650377,-0.49931756,0,-1.1039075,0,-0.030723973,0,0,0,-0.073019969,-0.12478982,-8.1026806,0,0,0,0.27787504,0.87830991,0.039222109
-0.035303353,0,-0.70606706,0,0,0,0.45685578,0.17092299,-3.1506424,-0.47837745,0.047524317,-0.061691435,0,-0.030723973,0,0,0,-0.18802645,0,-6.1966485,0,0,0,0.27787504,0.030472137,0
-0.072724832,0.034944081,-1.2579869,-0.037649795,0,0,0.033482413,0.10950587,-3.1506424,0.21201823,0,1.0487544,0,-0.030723973,0,0,0,-0.18885164,0,-5.8720441,0,0,0,0.4277984,0,0
-0.072724832,0.034944081,-1.2579869,-0.037649795,0,-0.24817807,0,0.070635905,-1.6113417,0.10753072,0.030040832,1.1104458,0,-0.1746319,0,0,0,-0.034623058,0,-4.1055193,0,0,0,0.14992335,-0.7901572,0
0,0,0,-0.0079475488,0,-0.24817807,0.085930074,0.0642447,-1.6113417,0.36784454,0,1.9120498,0,-0.1746319,0,0,0,0,0,-1.3535514,0,-0.029702246,0,0,-0.7901572,0
0,0,-1.8423066,-0.0079475488,0,-0.24817807,-0.099793334,0.09421636,-0.9287828,0.26031382,0.079512439,1.9120498,0,-0.025238912,0,0,0,0,0.17933496,-2.7615281,0,-0.029702246,0,0,-0.7901572,0
-0.070801917,-0.027781739,-1.2627437,-0.037649795,-0.028151862,-0.24817807,-0.099793334,0.058385615,1.5524294,-0.085626091,0.11566692,0.80160398,0,0.051968613,0,0,0,-0.19447217,0.17933496,-2.7615281,0,0.028151862,0,0,-0.7901572,0
-0.10890369,0.0034608459,-0.74156563,-0.037069299,-0.028151862,-0.56026444,0.50930344,-0.0033159642,3.4440574,0.14258929,0.030040832,2.0989069,0,-0.097424375,0,0,0,-0.19447217,0,-0.074138597,0,0.028151862,0,0,-0.73031568,0
0,0.12533691,-1.6585991,0,0,-0.064351544,0.42337337,-0.035281114,2.2012344,0.50624341,0,1.0531286,0,-0.097424375,0.060461308,0,0,0.22181923,0.17933496,-4.2270075,0,0,0,0,0.2263584,0.11535674
0,0,-0.91312307,0,-0.031490626,-0.30833732,0,-0.034553064,0.088644584,0.069934451,0,-0.030079627,0,0,0,0.036925217,0,0.077034854,0.084863081,-0.27140595,0,0,0,0.4277984,1.1911706,0.0012037136
-0.1278606,0,-1.0307894,0,-0.031490626,-0.30833732,0,-0.034553064,-1.1521364,-0.034553064,0,-1.0507256,0,0.025773215,0,0.036925217,0,-0.22724856,0.084863081,-1.1591986,0,0,0,0.4277984,1.1911706,0.079642945
-0.16248366,0,-0.11766633,0,0,-0.30833732,0,0,-1.4882636,0,0,-1.6809289,0,0.00053430267,0,0,0,-0.11862752,0.17933496,-3.7192287,0,0,0,0.4277984,0.35443573,0.039222109
-0.034623058,0,0,0,0,-0.56026444,0,0,-1.4882636,0,0,-0.63020331,0,0.00053430267,0,0.036925217,0,-0.034623058,0.17933496,-6.5594928,0,0,0,0.4277984,0.21573068,0.035713799
0,0,-1.2121294,0,-0.031490626,-0.56026444,0.085930074,0,0,0,0,-0.85761013,0,0.10298074,0,0,0,0.26104133,-0.094471879,-5.4594401,0,0,0,0,0.21573068,0.035713799
-0.16335916,0.090392833,-1.3652943,0,0,-0.62461598,0,0.4585486,0,-0.53534065,0,-1.9094484,0,0.10298074,0.060461308,0,0,-0.039222109,0,-6.4964719,0,0,0,0,1.1993505,0.074935908
-0.1278606,0.090392833,-0.11766633,0,0,-0.31252961,0,0.49646168,-1.1521364,-0.56989371,0,-1.6820416,0,0.10298074,0.060461308,0,0,-0.039222109,0,-2.8741917,0,0,0,0,1.3380556,0.039222109
-0.16248366,0,0,-0.069129809,0,-0.31252961,-0.16030255,0.49646168,-2.280515,-0.56989371,0,-1.8586065,0,0.10298074,0.060461308,0,0,-0.22264951,-0.12478982,-6.6659324,0,0,0,0,1.139509,0
-0.034623058,0,0,-0.032060511,0,-0.31252961,0.29655323,0.29054,-0.20054289,-0.58286497,0.047524317,-0.89965196,0,0.10298074,0,0,0,-0.18885164,-0.12478982,-5.2637782,0,0,0,0,1.139509,0
-0.034623058,0,0,0,0,-0.31252961,0,0.31148192,-1.6301511,-0.43085313,0.030040832,-0.74507672,0,0.072256766,0,0,0,-0.034623058,-0.12478982,-3.4399382,0,0,0,0.27787504,0.32269351,0
-0.038101774,0.034944081,-1.2579869,0,0,0,0,0.17558081,-1.9662783,0.14258929,0.030040832,-0.74507672,0,0.047017854,0,0,0,0,-0.12478982,-4.5399909,0,0,0,0.4277984,0.25949548,0
-0.038101774,0.034944081,-1.2579869,0,0,0,0,0.24923579,-2.9849644,0.21201823,0,-0.63020331,0,-0.12761405,0,0,0,0,-0.12478982,-4.2320669,0,0,0,0.4277984,0.25949548,0
-0.038101774,0,-1.8423066,-0.0023582645,0,-0.31208637,0.26307081,0.14148853,-4.3978658,0.51043382,0.041410665,0.48024251,0,-0.12761405,0,0,0,0,-0.12478982,-4.2320669,0,-0.029702246,0,0,0.15423628,0
0,0.066186666,-2.9912943,-0.077077358,0,-0.31208637,0.077347404,0.14069581,-2.1506239,0.38670596,0.085626091,2.3276247,0,0.10298074,0.060461308,0,0,0,0.05454514,-1.8159042,0,-0.029702246,0,0,-0.50184246,0
-0.10890369,0.097555175,-2.6383969,-0.1067796,-0.028151862,0,0.077347404,0.09596676,1.6618523,0.10448751,0.068142606,1.2171789,0,0,0.060461308,0,0,-0.23369428,0.05454514,-1.8159042,0,0.028151862,0,0,-0.3631374,0.039222109
-0.10890369,0.094094329,-2.4001647,-0.069129809,-0.028151862,-0.064351544,-0.34602596,0.058385615,1.6276279,0.43985767,0,1.2245293,0,-0.097424375,0.060461308,0,0,-0.039222109,0.05454514,-4.8160455,0,0.028151862,0,0,0.28730731,0.11535674
0,0,-0.63017721,0,-0.028151862,-0.30833732,0,0,0.088644584,0.10448751,0,-0.66028294,0,0,0,0,0,0.077034854,0,-1.7571919,0,0.028151862,0,0.27787504,0.63087686,-0.039217123
0,0,0,0,-0.059642488,0,0,-0.034553064,0,-0.034553064,0,-0.85761013,0,0,0,0.036925217,0,0,-0.094471879,-4.2451966,0,0.028151862,0,0,0.5998546,0.035713799
-0.1278606,0,-0.11766633,0,-0.059642488,0,0,-0.034553064,0,-0.034553064,0,-1.8782561,0,0,0,0.036925217,0,-0.18802645,-0.094471879,-4.6988327,0,0.028151862,0,0,0.5998546,0.074935908
-0.16248366,0,-0.11766633,0,-0.059642488,0,0,-0.034553064,-1.4882636,-0.034553064,0,-1.2480527,0,-0.025238912,0,0.036925217,0,-0.19164748,-0.094471879,-4.3262853,0,0.028151862,0,0,0.30988698,0.074935908
-0.16248366,0,-0.11766633,0,-0.059642488,0,0.085930074,-0.034553064,-1.4882636,-0.034553064,0,-1.2480527,0,-0.025238912,0,0,0,-0.00083027988,-0.094471879,-4.4794122,0,0.028151862,0,0,0.30988698,0.039222109
-0.16248366,0,-0.11766633,0,-0.028151862,-0.31208637,0,-0.034553064,-1.4882636,-0.034553064,0,-1.0206459,0,-0.025238912,0,0,0,-0.26187161,0,-4.7186497,0,0.028151862,0,0,0.17118193,0.039222109
-0.034623058,0.090392833,0,0,-0.028151862,-0.31208637,0,-0.034553064,-1.4882636,-0.034553064,0.030040832,-0.061691435,0,-0.025238912,0,0,0,-0.22264951,0,-3.0175029,0,0.028151862,0,0,0.3697285,0
-0.034623058,0.090392833,0,-0.037069299,-0.028151862,-0.31208637,0,0.24023165,1.8711015,0,0.030040832,-0.061691435,0,-0.025238912,0.060461308,0,0,-0.22264951,0,-2.8128832,0,0.028151862,0,0,0.3697285,0
0,0.090392833,0,-0.069129809,-0.028151862,-0.31208637,0.29655323,0.3287956,0.74272284,0,0.030040832,-0.092883801,0,-0.025238912,0.060461308,0,0,0,0,-2.8701983,0,0.028151862,0,0,1.186544,0
0,0.090392833,0,-0.069129809,-0.028151862,-0.37643791,0.26307081,0.49111718,-0.18511289,-0.53534065,0.030040832,-0.092883801,0,-0.025238912,0.060461308,0,0,0,0,-2.8701983,0,0.028151862,0,0,1.2187198,0
0,0.090392833,0,-0.069129809,-0.028151862,-0.37643791,0.26307081,0.49111718,-0.39874733,-0.53534065,0,-0.20775721,0,-0.025238912,0.060461308,0,0,0,0,-2.8701983,0,0.028151862,0,0,1.2187198,0
0,0.12533691,-1.2579869,-0.069129809,-0.028151862,-0.37643791,0.26307081,0.52694792,-0.062620112,-0.53534065,0,-0.20775721,0,0,0.060461308,0,0,0,0,-1.7701456,0,0.028151862,0,0.4277984,1.2187198,0
-0.038101774,0.12533691,-1.8881641,-0.069129809,-0.028151862,-0.37643791,0.26307081,0.59941407,-2.6724349,-0.49723887,0.041410665,0.83802104,0,-0.20535587,0.060461308,0,0,0,0,-4.9021598,0,0.028151862,0,0.27787504,1.2187198,0
-0.038101774,0.12533691,-2.4701163,-0.0073670523,-0.028151862,-0.064351544,0,0.47115773,-3.0066293,-0.17691866,0.088934983,1.9484669,0,-0.17958266,0.060461308,0,0,0,0,-6.1443668,0,-0.0015503845,0,0,1.323979,0
-0.073405127,0.031368509,-2.4393745,-0.0079475488,-0.028151862,-0.064351544,0,0.4761703,-2.7929948,-0.16749611,0.068142606,0.90268861,0,-0.17958266,0,0,0,-0.19447217,0.17933496,-4.843362,0,-0.0015503845,0,0,1.1588783,0
-0.10890369,0,-2.2366409,-0.069710306,-0.028151862,-0.064351544,-0.34602596,0.45786171,-0.56571017,-0.13358475,0.038101774,2.7574212,0,-0.10237513,0,0,0,0,0.05454514,-5.3582615,0,0.028151862,0,0,0.33769881,0.076134636
-0.33893846,0.094320879,-9.834457,0.030002651,-0.028151862,0.059635807,0.72919754,0.7743273,-21.411769,-2.9446371,0.29325116,1.7499849,0,-0.80078005,0.059636138,-0.076631206,-0.13968093,1.2237159,-0.09935669,-10.234667,-0.078315749,0.25669416,0,0.83561747,1.75145,-0.11088928
-0.30605313,0.094320879,-9.7893881,0.037369703,-0.028151862,0.059635807,0.30582417,0.80960841,-21.354744,-2.8971128,0.24572684,2.2004978,0,-0.80078005,0.089938316,-0.11143805,-0.13968093,1.2237159,-0.09935669,-8.7918475,-0.0031231094,0.15183038,0,0,0.73906165,-0.11088928
-0.27143007,0.12502689,-9.7893881,0.037369703,-0.028151862,0.059635807,0.27234176,0.80960841,-19.847292,-2.4873443,0.24572684,2.2716028,0,-0.86207258,0.064318024,-0.11143805,-0.13968093,1.1750341,-0.09935669,-3.1687394,-0.0031231094,0.15183038,0,0,-0.32415796,-0.11088928
-0.27143007,0.094320879,-9.6998228,0.068666002,0,0.059635807,0.026109127,0.56937676,-17.638774,-2.0149902,0.20939191,2.2716028,0,-0.66456212,0.064318024,-0.074512834,-0.13968093,1.1750341,0.025433131,1.4116355,-0.0031231094,0.12367852,0,0,-0.91062695,-0.11088928
-0.27143007,0.063078294,-9.5375651,0.068666002,0,0.059635807,0,0.56937676,-14.554541,-2.0149902,0.20939191,2.2716028,0,-0.43747955,0.064318024,-0.074512834,-0.13968093,1.1750341,0.063019674,1.4514764,0.20019625,0.16185911,0,0,-0.91062695,-0.11088928
-0.27143007,0.0039280458,-9.5375651,0.068666002,-0.031490626,0.059635807,0,0.49691062,-10.979535,-2.0149902,0.20939191,2.2716028,0,-0.40354821,0.064318024,-0.11143805,-0.13968093,1.0979992,-0.21078717,3.6379459,0.16626491,0.094967402,0,0,-0.91062695,-0.11088928
-0.27143007,0.063388314,-9.5375651,0.068666002,0,0.059635807,0,0.49691062,-6.3973459,-2.8316666,0.24572684,1.2184742,0,-0.11171458,0.064318024,-0.11143805,0,0.75176862,-0.11631529,4.3925661,0.16626491,0.094967402,0,0,-0.91062695,-0.11088928
-0.27143007,0.063388314,-8.0685751,0.097558481,0,0.059635807,0,0.49691062,-7.5721656,-2.8316666,0.24572684,1.2184742,0,0.045107946,0.064318024,-0.11143805,0,0.75176862,-0.11631529,3.0489077,0.16626491,0.094967402,0,0,-1.1417668,-0.11088928
-0.27143007,0.063388314,-8.5897531,0.068666002,0,0.059635807,0,0.40243874,-6.3973459,-1.8239718,0.17935107,0.17269595,0,0.077741827,0.064318024,-0.11143805,0,0.43083081,-0.11631529,1.8220415,0.16626491,0.094967402,0,0,0.84138538,-0.075175478
-0.27143007,0.035606575,-6.9641549,0.068666002,0,0.059635807,0.033482413,0.3646145,-6.3973459,-1.0735511,0.11180969,0.17269595,0,0.077741827,0.064318024,-0.11143805,0,0.23635864,-0.11631529,1.6930767,0.16626491,0.094967402,0,0,0.84138538,-0.075175478
-0.01202818,0.035606575,-4.4631809,0.031596703,0,0.059635807,0.033482413,0.3646145,-4.9454221,-1.0735511,0.14185052,1.1316504,0,0.00053430267,0.034015846,-0.11143805,0,-0.13522193,-0.11631529,0.35302789,0.13030655,0.094967402,0,0,1.0064861,0.035713799
0.10797308,-0.023543673,-3.2867325,0.060489182,0,0.059635807,0.033482413,0.33264935,-3.8081839,-1.0735511,0.11180969,1.1316504,0,0.00053430267,0,-0.11143805,0,-0.13522193,-0.11631529,-2.0616381,-0.012341787,0.094967402,0,0,-0.20656996,0.035713799
0.14327643,-0.023543673,-2.5806654,0.068666002,0,0.059635807,0.033482413,0.14082646,-3.523338,-0.59016322,0.073707913,1.2245342,0,-0.025238912,0,-0.11143805,0,-0.22827003,-0.11631529,-3.9292374,-0.012341787,0.094967402,0,0,-0.91062695,0.035713799
-0.035498564,0.0071623417,-2.5056149,0.068666002,0,0,0.033482413,0.067849695,-2.280515,0,0.041410665,0,0,-0.025238912,0,0,0,-0.22827003,-0.11631529,-2.5831287,0,0,0,0,0,0.035713799
-0.16248366,-0.058487754,-0.43091436,0.13601804,-0.031490626,0,0.30582417,0.15726983,-13.929295,0.069934451,0,-1.1229433,0,-0.52928623,0.12477933,0.036925217,0.021253701,0.27718167,-0.15624203,-1.8635026,-0.23390102,-0.067882833,0,0,0.3454395,0.11535674
-0.016593985,-0.027781739,-2.7588438,0.16491052,-0.031490626,0.059635807,0.18641168,0.067977829,-13.488016,-0.7676312,0,-2.248738,0,-0.79839853,0.085364917,0.034806845,0.021253701,0.46359328,-0.21078717,-3.6034656,-0.23390102,-0.067882833,0,0.4277984,-0.85166605,0.035713799
0.050914396,0.0029242756,-2.5584027,0.021525426,-0.031490626,0,0.39795251,-0.069834178,-3.3782712,-0.18934238,0.047524317,-0.22559573,0,-0.15529717,0.090763486,0.034806845,0,-0.1188238,-0.094471879,-2.0846692,-0.042923449,0.10486378,0,0.98554082,0.052539351,0
-0.16248366,-0.027781739,-1.2712227,0.098948745,-0.031490626,0,0.43143493,-0.069834178,-4.9514171,-0.11598875,0.047524317,-0.29670077,0,0.087487932,0.05592247,0.034806845,0,0.20064259,-0.094471879,-5.1356592,-0.075192639,0.10486378,0,0.70766578,1.0893278,0
-0.16248366,-0.058487754,-2.2202707,0.098948745,-0.028151862,0,0.32358003,0.17039747,-3.3606541,-0.58834288,0.15140064,-0.034487115,0,-0.051615433,0.025620292,0,0,0.23444045,-0.12478982,-2.7498137,0,-0.0015503845,0,0.14992335,1.5563942,0
-0.16248366,0.031905079,-1.7523511,0.067652446,-0.028151862,0,0.34968916,0.24286362,-4.0179494,-0.54081856,0.10387632,-1.0738279,0,-0.081187545,0.025620292,0.036925217,0,-0.13637796,-0.16237636,-2.7749086,-0.20331936,-0.039730971,0,0.14992335,0.27658201,0
-0.16248366,0.062611094,-0.77300104,0.037950199,-0.028151862,0.059635807,0.23764996,0.24286362,-5.7872888,-0.54081856,0.036334934,-1.0738279,0,-0.06266821,0.025620292,0,0,-0.059343103,0.016958596,-2.4994877,0.033931338,0.095043566,0,0.14992335,0.031296299,0
-0.16248366,0.062301074,-0.84837204,0.098948745,-0.031490626,0,0.23764996,0.24286362,-5.4012929,-0.57235338,0.036334934,-0.020699273,0,-0.15409673,0.025620292,0,-0.13968093,0.49443365,-0.077513283,0.87451776,-0.16938802,0.037189458,0,0,0,0
-0.29402495,0.062301074,-3.2967122,0.12784122,0,0,-0.18572341,0.3126978,-5.4012929,-0.77525859,0.10387632,-0.020699273,0,-0.34355313,0.025620292,0,-0.13968093,0.23339231,0.016958596,0.87451776,-0.213999,0.037189458,0,0,0.58567568,0
-0.25940189,0.062301074,-3.2213412,0.12784122,0,0,-0.15961428,0.16693802,-3.7939575,-0.93474209,0.10387632,-0.020699273,0,-0.19564222,-0.074255432,0,-0.16093463,0.16568774,-0.16237636,0.47844477,-0.16938802,-0.029702246,0,0,1.5208725,0.035713799
-0.33020381,0.062301074,-5.1378487,0.021525426,0,0,-0.12613187,0.23980028,-3.1714448,-1.2128087,0.097582219,1.025079,0,-0.13776943,-0.034841016,0,-0.16093463,0.16568774,-0.16237636,1.5275295,0.033931338,-0.029702246,0,0,1.5208725,0.035713799
-0.33020381,0.031368509,-6.4266933,-0.0073670523,0,0,-0.12613187,0.36364535,-3.64061,-1.2509105,0.13568399,-0.12093345,0,0.043276187,0.030302178,0,0,0.2163305,-0.27869165,0.054929404,0.069889693,-0.029702246,0,0.55774242,0,-0.11088928
-0.4147065,0.059150248,-3.8607605,-0.0073670523,0,0,-0.18572341,0.50073435,-4.7778482,-1.6957069,0.030040832,1.2184742,0,-0.033931338,0.064318024,-0.11143805,0,0.46462867,-0.27869165,-0.78381432,0.087357723,0.065265155,0,0.55774242,0.16073677,-0.074930922
-0.4147065,0.094094329,-3.8172289,0.021525426,0,0,-0.18572341,0.40626247,-2.6826329,-0.65587512,0.068142606,-0.0060600344,0,-0.05917025,0.030302178,-0.11143805,0,0.46462867,-0.27869165,-0.78381432,-0.010679639,0.065265155,0,0.55774242,0.86479376,-0.074930922
0.015611043,0.063388314,-5.3873547,-0.031296299,0,0,-0.18572341,0.26661122,-1.5542543,-0.99993174,0.030040832,-0.0060600344,0,-0.05917025,0.030302178,-0.11143805,0,0.46462867,-0.24110511,-1.6816828,0.066200528,0.094967402,0,0.55774242,1.0377824,-0.034510086
-0.1278606,0.028444234,-1.4950752,0.068666002,0,0,0.033482413,0.22644612,0,-0.033911364,0.030040832,-1.0518383,0,0,0,0,0,0.37158057,-0.24110511,-2.4733177,0,-0.038180587,0,0,0.93519682,0.0012037136
-0.19536898,-0.030706015,-0.43091436,0.1063158,-0.031490626,0,0.14552161,0.089292004,-14.818516,0.069934451,0,-2.2357099,0,-0.6322296,0.12477933,0.036925217,0.021253701,0.43243173,-0.031452205,0.44535411,-0.23390102,-0.038180587,0,0,0.16510072,0.11535674
-0.032885324,0,-0.31810746,0,0,0.059635807,0.085930074,0,-8.1724783,-1.1957069,0,-1.2186785,0,-0.72126306,-0.039414415,0.071732063,0,0.037743261,0,-2.7078211,0,0,0,0,0.16510072,0.039222109
0,0.030706015,-0.030302178,0.028892479,0,0,0.27971504,0,-7.10722,0,0,0,0,-0.25827791,-0.0091122376,0.036925217,0,0.093048105,0,-1.6057408,0,0,0,0.27787504,-0.23113983,0
0,0,-1.0096523,0.058594725,-0.031490626,0,0.27971504,0,-9.529538,0,0.067541387,-0.26221366,0,-0.233039,0.030302178,0.071732063,0,0.093048105,-0.094471879,-5.7884955,-0.075192639,0.10486378,0,0.83561747,-0.1430335,0
0.14588967,0.059150248,-2.8967073,0.058594725,-0.031490626,0,0.085930074,0.072466145,-9.2861436,-0.107265,0.067541387,-0.40674453,0,-0.35322981,0,0.071732063,0,0,-0.094471879,0.97420031,0,0.10486378,0,0.83561747,-1.5870346,-0.074930922
0.178775,0.059376798,-1.9173572,0.058594725,-0.031490626,0,0.1120392,0.072466145,-7.4229306,0.17753764,0.047524317,1.1104458,0,-0.11829012,0,0.036925217,0,0,-0.094471879,-2.9712102,-0.20331936,0.066683193,0,0,-0.77656144,-0.074930922
0.178775,0.00022655001,-1.9173572,0.027298426,-0.059642488,0.059635807,0,0,-5.6693608,0.17753764,0.047524317,0,0,-0.30969797,0,0.036925217,0,-0.20754617,-0.2192617,-4.3380903,0,-0.0015503845,0,0,0.045442181,-0.074930922
0.014348376,0.00022655001,-2.7657292,0.058594725,-0.059642488,0,0.50930344,0.17039747,-6.3014732,0.10907321,0.12123223,-1.1838717,0,-0.30279577,-0.034841016,0.036925217,0,0.68292029,-0.2192617,0.25526222,-0.20331936,-0.0015503845,0,0.14992335,0.58567568,-0.074930922
0.012610642,0.00022655001,-2.6903582,0.021525426,-0.059642488,0,0.1120392,0.32952365,-4.6521158,-0.96697752,0.15756716,-0.092883801,0,-0.38781057,0.025620292,0,0.021253701,1.1307105,-0.039926739,-2.428445,-0.044610977,0.06534132,0,0,0.58567568,-0.039217123
-0.10542498,-0.027555189,-3.2673079,-0.037069299,-0.031490626,0,0.14552161,0.39652683,-1.1854689,-0.58834288,0.12526992,-0.092883801,0,0.061292535,-0.013794124,0,0,0.51452952,-0.15624203,-0.73742222,0,0.16185911,0,0.55774242,0.93519682,-0.039217123
-0.10542498,0.0031508256,-5.0195947,0,-0.031490626,0,0.11941249,0.43435106,-1.1854689,-0.61045515,0.18338876,0.84537142,0,0.061292535,0.025620292,0,0,0.47530741,-0.33557699,-2.1358837,0.053426385,0.094967402,0,0.55774242,0,-0.035708813
-0.046651238,0.065876645,-11.171789,-0.031296299,0,0,-0.073684207,0.43645906,-2.1921232,-1.2481427,0.23091308,0.6179646,0,0.029105608,0.025620292,-0.11143805,-0.16093463,0.91368254,-0.27869165,-1.8474085,0.08938474,0.094967402,0,0.83561747,0.031296299,-0.031246332
-0.046651238,0.065876645,-8.3050092,-0.031296299,0,0,-0.073684207,0.4750637,0.048494478,-2.4607437,0.18144147,2.0502561,0,-0.032633881,0.025620292,-0.11143805,0,0.56745196,-0.16237636,-0.82517062,0.053426385,0.094967402,0,0.4277984,-0.78988316,0.004712023
0.14415194,0.066186666,-6.3869952,0.027298426,0,0,-0.073684207,0.47521766,-0.057090319,-1.9303212,0.13391715,-0.29851185,0,-0.057872793,0.034015846,0,0,0.26933812,-0.16237636,-2.4385686,-0.044610977,-0.029702246,0,0.4277984,-1.8960974,0.004712023
0.14415194,0.0619486,-3.0317072,0.067071949,0,0,0.085930074,0.19835062,-1.493597,-1.5569048,0.036334934,0.7472664,0,-0.066565219,-0.0045388386,0,0,0.25226923,0,-4.8091286,0.066200528,-0.067882833,0,0.4277984,0.22758559,0.079642945
-0.034623058,0.063388314,-2.8402565,0.13601804,0,0,0.033482413,0.10260105,-0.071391746,0,0,0.7472664,0,-0.033931338,0.030302178,0,0,0.15922112,0,-5.3361791,0.033931338,-0.067882833,0,0.4277984,1.3767718,0.11535674
-0.19536898,-0.030706015,-1.4896964,0.1063158,-0.031490626,0,0.05959154,-0.034553064,-13.499659,0.069934451,0,-2.1428261,0,-0.29391451,0.12477933,0.036925217,0.021253701,0.47165384,0.084863081,-1.4111364,-0.13586365,-0.038180587,0,0,0.93519682,0.076134636
0,0,-1.4945558,0.1063158,0,0.059635807,0.085930074,0,-8.8358476,-1.1262779,0,-0.034806845,0,-0.44177789,0.060461308,0.034806845,0,0.20782622,0,-5.1644759,0.098037363,0,0,0,1.1002975,0.039222109
0,0,-1.8961909,0,0,0,0.11941249,0,-8.4755391,0.10448751,0,0,0,-0.19009708,0.021046893,0,0,0.17008296,0,-4.7336828,0.067455701,0,0,0,1.1927678,-0.074930922
0,0,-2.9058432,0.028892479,0,0,0.27971504,0.072466145,-7.4807218,0.10448751,0.10895205,-0.07110504,0,-0.13855065,-0.0091122376,0,0,-0.030477403,0,-5.0396176,0.022844723,0,0,0,1.813996,-0.074930922
-0.070987098,0.059150248,-2.0887508,0.028892479,0,0,0.27971504,0.3126978,-7.6297594,0.47491624,0.041410665,-1.5171904,0,-0.27221799,-0.0091122376,0.071732063,0,0.0087447059,0,-2.9091724,-0.14989297,0,0,0.83561747,0.13886954,-0.074930922
-0.070987098,0.031242585,-1.4282714,0.029702246,-0.031490626,0,0.21989409,0.24023165,-5.2813219,0.47491624,0.041410665,-0.33563949,0,-0.19504784,-0.039414415,0.071732063,0,0.0087447059,-0.094471879,-1.0176512,-0.18047463,0.066683193,0,0.83561747,0.1444895,0
-0.070987098,0,-1.9494494,-0.0015940525,-0.031490626,0.059635807,0.11941249,0.36407672,-3.7070988,-0.43425236,0.11004285,-0.20111648,0,-0.4803821,-0.074255432,0.034806845,0,-0.23522773,-0.2192617,-1.6498905,0.053426385,0.1616506,0,0,0.42107151,0
-0.023753397,0,-3.222435,-0.0073670523,0,0,0.54278585,0.3287956,-7.8402651,-0.2091904,0.068632181,-0.16630963,0,-0.5436702,-0.034841016,0.036925217,0.021253701,-0.025053155,0,0.88553961,-0.14989297,0.19983118,0,0.55774242,0.96130501,0.035713799
0.11039111,-0.027781739,-3.8289226,-0.0073670523,-0.028151862,0,0.05959154,0.12433003,-4.8606763,-0.5847497,0.068632181,-1.3916289,0,-0.51789699,0,0.036925217,0.021253701,-0.50814412,-0.11631529,-2.796997,0.053426385,0.22798304,0,0.98554082,0.93519682,0.074935908
0.10797308,-0.058797774,-6.0764779,-0.0015940525,-0.028151862,0,0.033482413,0.10482741,-3.7019796,-0.39836445,0.15425827,-0.34228023,0,-0.46551606,-0.039414415,0.036925217,0,-0.26417168,0.025433131,-0.44794292,0.08938474,0.16030872,0,0.98554082,0.96649312,0.04368459
0.058773737,0.0073888917,-6.5977486,-0.031296299,-0.059642488,0,0,0.26938511,-4.7821275,-1.2384744,0.1150657,-0.22740681,0,-0.43288218,0,-0.074512834,0,0.082058895,0.047276538,1.9403865,0.08938474,0.095043566,0,0.4277984,0.031296299,0.04368459
0.058773737,-0.023853693,-6.6877685,-0.068946094,-0.031490626,0,-0.18572341,0.2324074,-5.4635895,-1.3144703,0.15707759,-0.22740681,0,-0.56801248,0,-0.074512834,-0.16093463,0.29901739,-0.13205842,4.5868771,0.035958355,0,0,0.4277984,0.061768435,0.0044624814
-0.070801917,-0.028091759,-2.0551785,-0.037649795,-0.031490626,0,0,0.19526138,-2.0857336,-0.69039568,0.11566692,2.2776629,0,-0.53582555,0.060461308,0.036925217,0,0.6199552,-0.094471879,-0.00921161,0,0,0,0.14992335,-1.7013343,0
-0.070801917,0.030932565,-3.3903469,-0.0087573165,-0.031490626,0,0.026109127,0.40334594,0.050681843,-1.2287982,0.14510654,0.98202359,0,-0.31763868,0.060461308,0,0,0.83149627,-0.094471879,-0.073549562,-0.012341787,0,0,0,-0.98327186,0
-0.032885324,0.030932565,-0.97935011,0.097558481,-0.031490626,0,0.14552161,0.37053427,-2.6518068,-1.3265887,0.15140064,-1.1838717,0,-0.13557725,0.059636138,0,0,0.77988088,-0.094471879,-0.50336546,0.03226919,-0.038180587,0,0,0.8269994,0
-0.032885324,0.063614864,-1.6889013,0.029702246,-0.031490626,0,0.11941249,0.20567859,-1.0549724,-0.082077381,0.047524317,-0.20919844,0,-0.16950859,0.030302178,0,0,0.74065878,0.084863081,-2.5400891,0.033931338,-0.029702246,0,0,1.407244,0.11535674
-0.19536898,-0.030706015,-0.31324803,0,-0.031490626,0,0.026109127,-0.034553064,-11.018115,0.069934451,0,-2.1428261,0,-0.23055665,0.064318024,0.036925217,0.021253701,0.5486887,0.084863081,-2.079966,-0.23390102,-0.038180587,0,0,0,0.076134636
-0.034623058,0,-0.40767279,0.1063158,0,0.059635807,0.026109127,0,-10.318079,-1.1262779,0,-0.034806845,0,-0.26968106,0,0.034806845,0,0.17320316,0,-5.0279222,-0.23390102,0,0,0,0,-0.035708813
0,0,-1.8995338,0,0,0.059635807,0.026109127,0.072466145,-10.683704,-0.75042075,0.067541387,-0.10591189,0,0.071616086,0.060461308,0.034806845,0,0.070224129,0,-0.98217724,-0.030581662,0,0,0,0.9448383,-0.074930922
0,0,-0.97935011,0,0,0,0.026109127,0.072466145,-11.308581,0,0.10895205,-0.07110504,0,-0.099517854,0.060461308,0,0,0.10944624,0,-5.4229625,-0.23390102,0,0,0,0.50919905,0
0,0.059150248,-0.19255986,0.028892479,0,0,0.1120392,0.24023165,-12.235071,-0.47235414,0.068632181,0,0,-0.15944055,0.030302178,0.036925217,0,0.30026344,0,-5.9992845,-0.23390102,0.094967402,0,0.55774242,-0.42149337,0
0,0.090392833,-0.19255986,0.028892479,-0.031490626,0,0.27234176,0.12384507,-9.6477003,0.16747403,0.068632181,-0.32029061,0,-0.1795819,0.030302178,0,0.021253701,0.26104133,-0.094471879,-2.6990359,-0.030581662,0.094967402,0,0.83561747,0.014145882,0
-0.035303353,-0.058797774,-3.9451817,-0.031296299,0,0.059635807,0.24623263,0.12384507,-8.4764775,0.16747403,0.068632181,-0.35509746,0,-0.3759405,-0.074255432,0.034806845,0.021253701,-0.17740328,-0.24110511,1.2242252,0.10341406,0.056786815,0,0.98554082,0.27658201,0.040176281
-0.23802696,-0.058797774,-4.1586019,-0.038663351,0,0.059635807,0.669606,-0.069834178,-12.503972,0.036023087,0.038101774,-0.4505129,0,-0.1795819,-0.039414415,0.034806845,0.021253701,-0.25042325,-0.15390183,-1.3561222,-0.0999053,-0.029702246,0,0.98554082,0.99260131,0.079398389
-0.14178901,-0.058797774,-4.864669,-0.0015940525,0,0,0.1120392,0.09495684,-8.7064832,-1.0587214,0.085626091,-0.33563949,0,-0.37214236,-0.039414415,0.034806845,0,-0.42815963,-0.037586544,-5.6424637,0.058803078,0.10486378,0,0.4277984,0.1757858,0.04368459
-0.068188677,0.0039280458,-4.7573616,-0.039243848,0,0,0.11941249,0.20027394,-12.335767,-0.75680351,0.1161565,-0.30083264,0,-0.33598236,-0.039414415,0,0,0.083304948,-0.037586544,-3.3245525,0.10341406,0.10486378,0,0.14992335,0.1757858,0.0044624814
-0.0087346443,-0.031016035,-3.6434196,-0.0079475488,-0.028151862,0,0.11941249,0.30219678,-9.8720035,-2.1329051,0.18369789,-1.1838717,0,-0.33553541,-0.039414415,-0.11143805,-0.16093463,0.22641828,0.17933496,-5.9738128,0.067455701,0.19990735,0,0,0.1444895,0
0.14588967,0,-3.8008278,-0.0079475488,-0.028151862,0,-0.066310921,0.06477682,-8.7599943,-0.6286991,0.071451497,-1.1838717,0,-0.16090351,0,0,-0.16093463,0.60727191,0.17933496,-0.25424992,0.067455701,0.19990735,0,0,0.96566896,0
0.14588967,0.0029242756,-3.9379924,0.029702246,-0.028151862,0,-0.152241,0.067795895,-5.7616815,-0.89578752,0.079512439,0.040662588,0,-0.269199,0,0,0,0.41279974,0.17933496,0.97102559,0.0016875286,0.19990735,0,0,-0.79660959,0
-0.10368724,0.0029242756,-2.5732545,0.13601804,-0.028151862,0,0.033482413,0.035830745,-3.5194213,-0.79794507,0.077565149,-0.13074303,0,-0.48389431,0,0.036925217,0,0.56679996,0,0.6225959,-0.042923449,0.16172676,0,0,0.11401736,0
-0.070987098,0,-2.4483402,0.16491052,0,0,0.14552161,0,-3.2984153,-0.23326787,0.067541387,0.91503523,0,-0.56159876,0.025620292,0.036925217,0,0.41504156,0,-1.0129406,0,0.1335749,0,0,0.79652726,0
0,0.094630899,-2.6682514,0.029702246,-0.031490626,0,0.53541257,-0.035281114,-3.3661883,0.10448751,0.067541387,0.97467322,0,-0.45353208,0.12477933,0.036925217,0,0.29885408,0.084863081,-5.7384476,0.033931338,0.037189458,0,0,0.441575,0.11535674
-0.16074592,-0.030706015,-0.28294585,0,-0.031490626,0,0,-0.034553064,-5.3475076,0.069934451,0,-2.1428261,0,-0.059241591,0.034015846,0.036925217,0.021253701,0.58331175,0.084863081,-3.142034,0,-0.038180587,0,0,0.81681551,0.0012037136
-0.034623058,0,-2.0997048,0.1063158,0,0,0.026109127,0,-8.3204398,-0.37585715,0.067541387,-0.07110504,0,-0.31156308,0.034015846,0,0.021253701,0.46774888,0,-4.6617785,-0.23390102,0.066891704,0,0.55774242,0.85236803,0.004712023
-0.034623058,0,-4.8204468,0.1063158,0,0.059635807,0.026109127,0.072466145,-7.0473613,-1.1262779,0.067541387,-0.10591189,0,0.055929464,0,0.034806845,0.021253701,0.39576099,0,1.1254405,-0.19794266,0.16185911,0,0.55774242,1.4075407,0.0044624814
0,0,-3.1355484,0,0,0,0.026109127,0.072466145,-3.9314792,-1.598632,0.068632181,0,0,-0.047548205,0.060461308,0.036925217,0.021253701,0.039222109,0,-2.8224693,-0.19794266,0.16185911,0,0.98554082,0.55383152,0.0044624814
0,-0.058797774,-1.6665584,-0.031296299,-0.031490626,0,0.1120392,0.3126978,-2.7851541,-1.2227749,0.068632181,0,0,-0.2439068,0.060461308,0.036925217,0.021253701,0.066569161,-0.094471879,-0.45166658,-0.167361,0.16185911,0,0.98554082,1.1858678,0.0044624814
-0.035498564,0.031595059,-3.6279242,-0.0024038201,-0.031490626,0,0.1120392,0.53101474,-4.2373925,-1.3196728,0,-0.32029061,0,-0.48383463,0.090763486,0,0.021253701,-0.43844461,-0.094471879,-7.0090568,-0.167361,0.066891704,0,0.4277984,0.90501511,0.040176281
-0.10368724,-0.058797774,-4.364771,-0.0024038201,0,0,0.026109127,0.16693802,-5.3624639,-0.78433212,0,-1.4112785,0,-0.13366734,-0.0045388386,0,0,-0.47766672,-0.24110511,-6.1876944,-0.19794266,0.028711117,0,0.14992335,-0.076901123,0.079398389
-0.32759057,0,-2.2363039,-0.037069299,0,0.059635807,0.60978505,0.059675726,-13.385101,-0.71439767,0,-2.2576996,0,-0.19162748,0,0,-0.16093463,-0.49472879,-0.27869165,-9.7881673,-0.23390102,0.028711117,0,0.83561747,0.84728765,0.039222109
-0.035303353,0,-0.9065082,0,0,0,0.64326746,0.09422879,-14.108243,-1.0693147,0.047524317,-0.034806845,0,-0.26042136,0,0.034806845,-0.16093463,-0.21153425,0,-1.8219594,-0.20331936,0.066891704,0,0.83561747,0.030472137,0
-0.072724832,0.034944081,-1.383057,-0.037649795,0,0,0.033482413,0.13793552,-14.565975,-0.58692385,0,1.075639,0,-0.16433866,-0.039414415,-0.076631206,-0.16093463,-0.034623058,0,-1.6080341,-0.20331936,0.066891704,0,0.4277984,0.93519682,0
-0.19272609,0.03463406,-2.3624071,-0.037649795,0,0,0,0.10778192,-9.3190958,-1.7685351,0.1662144,1.075639,0,-0.23945271,-0.039414415,-0.076631206,-0.16093463,-0.034623058,0,-4.1699862,-0.17105017,0.066891704,0,0.14992335,-0.82117946,0
0,-0.00031002036,-1.1764484,-0.0079475488,0,0,0.085930074,0.037824235,-8.2449825,0.29841559,0,1.1104458,0,-0.27757527,-0.039414415,0,0,0,0,-1.4180183,-0.073012802,0.037189458,0,0,-1.7318064,0
0.178775,0,-4.3059349,0.098368248,0,0,-0.099793334,0.067795895,-5.9876925,0.15304882,0.079512439,2.3349801,0,-0.12818228,-0.039414415,0,0,0,0.17933496,-2.836471,-0.11762378,-0.00099112909,0,0,-1.7318064,0
-0.070801917,-0.027781739,-2.6768207,0.068666002,-0.028151862,0,-0.099793334,0.03196515,-6.8001337,-0.085626091,0.11566692,0,0,-0.084906092,-0.074255432,0,0,-0.092214032,0.17933496,-1.5705607,-0.14654329,0.056862979,0,0,-0.82117946,0
-0.10890369,-0.027245169,-2.2859267,-0.0081768199,-0.028151862,0,0.50930344,-0.0033159642,-4.9597871,-0.23326787,0.030040832,2.0989069,0,-0.23429908,-0.040239585,0,0,0.22872378,0,0.016776077,-0.19996968,0.16271789,0,0,-0.54946258,0
0,0.12533691,-1.6889013,0,0,0,0.44948249,-0.035281114,-6.1319525,0.43681447,0,0.98202359,0,-0.44801309,0.12477933,0,0,0.22181923,0.17933496,-4.8894684,-0.19996968,0,0,0,0.441575,0.11535674
-0.032885324,-0.030706015,-0.91312307,0,-0.031490626,0,0,-0.034553064,-0.96042163,0.069934451,0,-1.2549767,0,-0.1368747,0,0.036925217,0,0.24552905,0.084863081,-1.3819346,0.033931338,0.066891704,0,0.4277984,1.4075407,0.0012037136
-0.16074592,-0.030706015,-2.0997048,0,-0.031490626,0,0,-0.034553064,-2.2303732,-0.034553064,0.067541387,-2.2139312,0,-0.30746009,0.034015846,0.036925217,0,-0.030100122,0.084863081,-2.9107044,0.033931338,0.16185911,0,0.4277984,1.4075407,0.079642945
-0.16248366,-0.031016035,-0.19303734,0.1063158,0,0.059635807,0,0,-4.4297137,0,0,-1.0648664,0,-0.33095459,0.034015846,0.034806845,-0.16093463,0.35653888,0.17933496,-4.2721219,0,0.094967402,0,0.4277984,0.31131037,0.039222109
-0.034623058,-0.031016035,-2.8029035,0.075019498,0,0.059635807,0,0,-3.357437,-0.37585715,0,-0.10591189,0,-0.33095459,0.034015846,0.071732063,-0.16093463,-0.034623058,0.17933496,-9.9019279,0.035958355,0,0,0.4277984,-0.56802029,-0.00024455567
0,-0.031016035,-4.0150329,0.075019498,-0.031490626,0,0.1120392,0,-2.3032134,-0.37585715,0,-0.29851185,0,-0.031638371,0.034015846,0,-0.16093463,0.26104133,-0.094471879,-8.7913992,0.035958355,0,0,0,0.34260667,-0.00024455567
-0.19624449,0.090392833,-2.6992077,0,0,0,0,0.4585486,-1.300064,-0.53534065,0,-2.5690286,0,-0.18544706,0.059636138,0.034806845,-0.13968093,-0.28319455,0,-9.828431,0.035958355,0,0,0,1.2627545,0.038977553
-0.16074592,0.090392833,-1.6069521,0.028892479,0,0,0,0.49646168,-4.6629739,-1.3203145,0,-2.3416218,0,-0.21959654,0.089938316,0.034806845,-0.13968093,-0.46093093,0,-2.8279254,0.035958355,0,0,0,1.1240849,0.0032637537
-0.29402495,0,-1.4892857,-0.0081768199,0,0,0,0.49646168,-7.6567408,-1.3203145,0,-1.2378167,0,-0.11665318,0.12477933,0,-0.13968093,-0.24615731,-0.27869165,-5.4486747,-0.19794266,-0.038180587,0,0,0.95898418,-0.035958355
-0.16616435,0,-0.12507013,0,0,0,0.64326746,0.29054,-10.576093,-1.7091429,0.047524317,-0.27886225,0,-0.049011158,0.034015846,0,-0.13968093,-0.034623058,-0.27869165,-2.409437,0.0016875286,0,0,0.55774242,1.190124,0
-0.16616435,0.030706015,-0.12507013,0,0,0,0.18641168,0.33991157,-7.0178078,-1.1288315,0.030040832,-0.18597845,0,-0.14852901,-0.039414415,-0.11143805,-0.13968093,-0.034623058,-0.24110511,-6.181494,0.0016875286,0,0,0.83561747,1.2160351,0
-0.28964433,0.034944081,-2.3624071,0.1063158,0,0,0.18641168,0.14044397,-8.2727609,-0.64580871,0.1662144,-0.2207853,0,-0.21455993,-0.039414415,0.034806845,-0.13968093,0,-0.24110511,-6.067867,0.035618867,0,0,0.98554082,-0.62978872,0
-0.15810303,-0.026777969,-1.383057,0.1063158,0,0,0.18641168,0.14612113,-9.4078574,-0.64580871,0.036334934,-0.10591189,0,-0.30417702,0,0.034806845,-0.16093463,0,-0.24110511,-5.6492639,0.033931338,-0.038180587,0,0.4277984,-0.62978872,0
0.14067322,0,-3.2545567,0.13601804,0,0,0.58367592,0.038373866,-7.6644104,-0.51764463,0.041410665,2.3001732,0,-0.16154538,-0.00082517,0.034806845,0,-0.24397244,-0.24110511,-5.6492639,-0.010679639,0.066683193,0,0,0.24528571,0
0,0.066186666,-4.3300004,-0.045016847,0,0,0.23764996,0.10555897,-7.8786386,0.24784807,0.085626091,2.085119,0,0.069049402,0.059636138,0,0,0.10225814,-0.061770146,-1.8159042,0.10138704,0.10486378,0,0,-0.37524051,0
-0.10890369,0.097555175,-5.3895085,-0.045826615,-0.028151862,0,0.23764996,0.13752412,-5.869824,0.26397101,0.068142606,0.97467322,0,-0.2478635,0.085364917,0,0,0.1125363,-0.061770146,-3.1005226,0.067455701,0.16271789,0,0,-0.51391006,0.039222109
-0.10890369,0.094094329,-2.4304669,-0.037069299,-0.028151862,0,-0.15961428,0.099942978,-5.7144142,0.37042873,0,0.98202359,0,-0.41408175,0.090763486,0,0,0.30700847,0.05454514,-4.0717854,-0.030581662,0.028151862,0,0,0.031188575,0.11535674
0,-0.031016035,-1.6095273,0,-0.028151862,0,0,0,-0.9264903,0.10448751,0.067541387,0,0,-0.10294337,0,0,0,0.42326543,0,-4.7641249,0,0.095043566,0,0.27787504,0.58564483,-0.039217123
-0.032885324,-0.06172205,-1.0689154,0,-0.059642488,0,0,-0.034553064,-1.2452676,-0.034553064,0.067541387,-1.4112785,0,-0.1368747,0,0.036925217,0,0.042919847,-0.094471879,-6.1267011,0.033931338,0.25768529,0,0,0.58564483,0.035713799
-0.16074592,-0.06172205,-0.11766633,-0.031296299,-0.059642488,0,0,-0.034553064,-2.4807446,-0.034553064,0,-2.370233,0,-0.1368747,0,0.036925217,0,-0.45550668,-0.094471879,-6.4817772,0.066200528,0.16271789,0,0,0.37165542,0.074935908
-0.19536898,-0.030706015,-0.11766633,-0.031296299,-0.059642488,0.059635807,0,-0.034553064,-1.4709137,-0.034553064,0,-2.4050398,0,-0.05917025,0,0.071732063,0,-0.13818991,-0.094471879,-5.7434823,0.066200528,0.16271789,0,0,-0.56944367,0.074935908
-0.19536898,-0.030706015,-0.11766633,0.1063158,-0.059642488,0.059635807,0.085930074,-0.034553064,-2.4953168,-0.41041022,0,-2.4050398,0,-0.12796413,0,0.034806845,0,-0.26831052,-0.094471879,-4.1300843,0.066200528,0.16271789,0,0,-0.60073997,0.039222109
-0.19536898,-0.030706015,-1.5866564,0.1063158,-0.028151862,0,0,-0.034553064,-3.7795999,-0.41041022,0,-2.177633,0,-0.12796413,0,0.034806845,0,-0.52935185,0,-4.3693219,0.066200528,0.16271789,0,0,-0.60073997,0.039222109
-0.034623058,0.059686819,-1.46899,0.1063158,-0.028151862,0,0,-0.034553064,-3.9978786,-0.41041022,0.030040832,0,0,-0.16211362,-0.034841016,0,0,-0.24615731,0,-3.9527934,-0.13711883,0.16271789,0,0,-0.43563925,0
-0.034623058,0.059686819,-2.8332056,0.098138977,-0.028151862,0,0,0.24023165,-2.9635573,-0.37585715,0.030040832,0,0,-0.35847222,0.05592247,0,0,-0.068420918,0,-5.5146985,-0.10116047,0.1245373,0,0,-0.66677908,-0.035958355
0,0.059686819,-2.7578346,0.098138977,-0.028151862,0,0.45685578,0.3287956,-7.2569349,-0.37585715,0.030040832,-0.092883801,0,-0.35847222,0.089938316,0,0,0,-0.037586544,-6.0839976,0.10215888,0.1245373,0,0,0.2425067,-0.035958355
0,0.090392833,-2.7578346,0.098138977,-0.028151862,0,0.44948249,0.5282632,-5.7532546,-1.0182389,0.030040832,-0.092883801,0,-0.28130206,0.089938316,-0.11143805,0,0,-0.037586544,-6.0568138,0.069889693,0.1245373,0,0,1.1777035,-0.035958355
-0.1315413,0.090392833,-3.7371848,0.098138977,-0.028151862,0,0.42337337,0.59624102,-7.0890826,-1.490593,0.13617357,-0.20775721,0,-0.36631687,0.050523901,-0.11143805,0.021253701,0,-0.037586544,-5.0569643,0.039308031,0.1245373,0,0.55774242,0.2425067,-0.035958355
-0.072767558,0.12502689,-5.3030015,-0.0081768199,-0.028151862,0,0.44948249,0.63207177,-9.2652261,-1.0625174,0.068632181,-0.27886225,0,-0.34683489,0.050523901,-0.11143805,-0.13968093,-0.24397244,-0.037586544,-5.0569643,0.0053766931,0.1245373,0,0.98554082,1.1886862,-0.035958355
-0.11086933,0.15604293,-6.0954364,-0.0081768199,-0.028151862,0,0.60978505,0.70453791,-14.111854,-0.58359626,0.041410665,1.9566434,0,-0.55219077,0.050523901,-0.076631206,-0.13968093,-0.24397244,-0.037586544,-8.1889785,-0.039234284,0.16271789,0,0.27787504,1.1886862,-0.035958355
-0.28964433,0.12533691,-5.5152788,0.021525426,-0.028151862,0,0.18641168,0.49958738,-12.093156,-1.4211468,0.088934983,1.842555,0,-0.71587395,0.051349071,-0.076631206,-0.13968093,0,-0.037586544,-9.4311855,0.0053766931,-0.0015503845,0,0,1.1886862,-0.035958355
-0.32494768,0.031368509,-6.5740986,0.02094493,-0.028151862,0,0.18641168,0.43662211,-10.887198,-1.4117243,0.068142606,0.86788177,0,-0.71587395,-0.0091122376,-0.076631206,-0.13968093,-0.19447217,0.025433131,-7.2192502,0.13399572,-0.0015503845,0,0,0.98803293,-0.035958355
-0.10890369,0,-3.4130892,-0.037649795,-0.028151862,0,0.00068827273,0.43144125,-7.519443,-0.20301369,0.038101774,1.9558172,0,-0.25618382,0,0,0.021253701,0,-0.061770146,-7.2497827,0.098037363,0.028151862,0,0,0.30552304,0.076134636
-0.10960107,0.12462306,-5.6192596,0.0084772242,-0.18273554,-0.095487455,0.73669192,0.271109,-39.689928,-3.2035884,0.45955493,-0.85482591,0,-0.30352771,0.059636138,-0.0723702,-0.10746896,0.44256111,-0.043090184,-8.339996,-0.39284192,0.31290145,-0.037329519,1.1253889,2.3182032,-0.33950792
-0.3130819,0.15532907,-5.6192596,0.0084772242,-0.18273554,-0.095487455,0.70320951,0.55596123,-35.440869,-2.7938199,0.45955493,-0.22206287,0,-0.36482025,0.034015846,-0.0723702,-0.14359545,0.38549701,-0.043090184,-6.4801627,-0.30918392,0.18700266,0,0.29268675,1.044003,-0.33950792
-0.3130819,0.12462306,-5.5296943,0.039773523,-0.15458368,-0.095487455,0.046932956,0.14626911,-30.866854,-2.3214658,0.42321999,1.0032535,0,-0.16730978,0.034015846,-0.0723702,-0.17117366,0.46207929,0.081699637,-1.3858767,-0.10359272,0.1588508,0,0,0.45753401,-0.33950792
-0.3130819,0.063078294,-5.3674366,0.039773523,-0.15458368,-0.095487455,-0.071116368,0.20369588,-24.005695,-2.3214658,0.42321999,1.0032535,0,0.12381518,0.092173489,-0.0723702,-0.17117366,0.46207929,0.11928618,-1.2502835,0.099726634,0.19703139,0,0,-0.54920647,-0.33950792
-0.3130819,0.0039280458,-5.1282488,0.039773523,-0.1154883,-0.12571811,-0.071116368,0.13122973,-18.931684,-2.3214658,0.42321999,1.5925757,0,0.18931158,0.092173489,-0.0723702,-0.14359545,0.34645004,-0.06004878,0.97528128,0.13150979,0.13013969,0,0,-0.88005407,-0.072294889
-0.074978015,0.063388314,-6.5027292,0.039773523,-0.1154883,-0.095487455,0.096565619,0.13122973,-13.384257,-3.0100046,0.45955493,1.3931807,0,0.48114521,0.092173489,-0.0723702,-0.031492727,0.15068871,-0.24754939,0.41980136,0.12209543,0.12571921,0,0,-0.91062695,-0.11088928
-0.074978015,0.063388314,-5.0337392,0.039773523,-0.1154883,-0.095487455,0.096565619,0.094581441,-13.41687,-3.1381422,0.45955493,1.3931807,0,0.63796773,0.092173489,-0.0723702,-0.031492727,0.22296479,-0.24754939,2.2409904,0.13150979,0.094967402,0,0.90602023,-0.91062695,-0.11088928
-0.074978015,0.063388314,-5.0337392,0.068666002,-0.12176,-0.12571811,0.096565619,0.075274524,-13.207288,-2.0023098,0.39317916,0.89647477,0,0.61281666,0.092173489,-0.0723702,-0.0039145168,-0.12880479,-0.24754939,1.787736,0.13150979,0.094967402,-0.037329519,0.90602023,0.84138538,-0.11088928
-0.074978015,0.063388314,-4.442826,0.068666002,-0.12176,-0.12571811,0.13004803,0.0087369021,-12.237882,-1.1780386,0.32563777,-0.17696975,0,0.61281666,0.092173489,-0.0723702,-0.0039145168,-0.3443148,-0.21062417,1.8248882,0.13150979,0.094967402,-0.037329519,0.90602023,0.84138538,-0.11088928
0.18442388,0.063388314,-2.9469415,0.031596703,-0.12176,0.059635807,0.16533366,0.079308147,-10.785958,-1.1780386,0.35567861,0.78198474,0,0.53560913,0.092173489,-0.0723702,-0.0039145168,0.10497817,-0.21062417,0.31872243,0.095551431,0.094967402,-0.037329519,0.90602023,1.0064861,0
0.34607696,0.0042380662,-2.0746031,0.069246498,-0.12385827,0.059635807,-0.0023483321,0.33447687,-6.7025687,-1.1780386,0.11180969,1.9171207,0,0.5041164,0.058157643,-0.0723702,0.02757821,0.25920676,-0.11631529,-1.9779889,-0.047096909,0.094967402,0,0.90602023,0.024569867,0
0.14327643,0.0042380662,-2.5806654,0.068666002,0,0.059635807,-0.0023483321,0.069164967,-3.523338,-0.59016322,0.073707913,1.2245342,0,0.41605416,0.058157643,-0.0723702,0,-0.03379786,0.071185326,-2.4566373,-0.012341787,0.094967402,0,0.073318103,-0.91062695,0
-0.035498564,0.034944081,-2.5056149,0.068666002,0,0,0.033482413,0.067849695,-2.280515,0,0.041410665,0,0,-0.025238912,0.058157643,0,0,-0.03379786,-0.11631529,-1.1105286,0,0,0,0,0,0
-0.16248366,-0.030706015,2.3492677,0.13601804,0,0.030230654,0.30582417,-0.093029324,-18.146803,0,0,-1.877156,0,-0.52928623,0.094477155,0,0.057380188,-0.57572436,-0.061770146,-1.4369635,-0.23390102,-0.067882833,0,0,0.3454395,0
0.2215099,0,1.4022585,0.13601804,0.068698743,0.089866461,0.42983546,-0.23682314,-25.232183,-1.3029718,0,-1.9458097,0,-0.86068756,0.094477155,0.073874697,0.084958398,-0.10055796,0.071185326,-3.8443852,-0.33846604,-0.067882833,0,0.27787504,0.20065324,0
0.050914396,0.030706015,3.7872435,0.030282743,0.029603367,-0.15512326,1.1614018,0.02040896,-18.927152,-0.22863975,0.047524317,-2.2272358,0,-0.28624487,0.11861895,0.073874697,0.063704697,-0.48055685,-0.036925217,-1.5043654,-0.35307967,0.064462145,0,0.90893557,1.1048586,0.038594388
-0.16248366,0,-0.089565328,0.098948745,0,-0.18535392,1.1948842,-0.28665964,-9.4977561,-0.081435681,0.088830057,0.18626167,0,0.087487932,0.025620292,0.034806845,0.036126487,0.51935467,0,-3.0232641,-0.15885064,0.23076256,-0.037329519,1.4637627,2.1214879,0
-0.16248366,-0.030706015,-1.0689154,0.070056266,-0.18090261,0,1.0870294,0.12303248,-10.449729,-0.55378982,0.15140064,-0.31662888,0,0.083711832,0.083777935,0,0.063704697,0.58946864,-0.12478982,-2.455809,-0.2055912,0.1243484,-0.037329519,1.198707,1.1777663,0
-0.16248366,0.089988996,-1.2311731,0.038759967,-0.18090261,0,0.62735277,0.13807185,-9.7305788,-0.5062655,0.10387632,-1.2187096,0,0.05238636,0.083777935,0,0,0.46262267,-0.16237636,0.32789109,-0.44366568,0.086167811,0,1.1253889,0.34285388,0
-0.16248366,0.12069501,-0.49101088,0.0090577207,-0.21999799,0.089866461,0.34763158,-0.031388616,-9.0294358,-0.5062655,0.036334934,-1.8495154,0,0.10338303,0.083777935,0.039067852,0,0.50882576,0.016958596,-0.86781057,-0.066538275,0.18054071,0,0.83270212,9.2902804e-05,-0.22861864
-0.16248366,0.12038499,0.80809853,0.098948745,-0.16295365,0.030230654,0.34763158,0.026038158,-10.61088,-0.66593798,0.036334934,-1.6239277,0,-0.045830446,0.025620292,0,-0.11210272,0.70206885,0.20445921,1.1783694,-0.30525074,0.12710708,0,0.83270212,-0.90989572,-0.19002425
-0.055921071,0.12038499,-1.6402416,0.098948745,-0.12385827,0.030230654,0.091940197,0.10050485,-5.4012929,-1.0078838,0.10387632,-1.590454,0,-0.25054013,0.025620292,0,-0.13968093,0.43817759,0.20445921,-2.2903297,-0.29356159,0.19826052,0,0.90602023,0.14979137,-0.22861864
-0.25940189,0.090082813,-1.5648706,0.098948745,-0.055159527,0.030230654,-0.049632663,-0.12041988,-4.7591948,-1.1673673,0.14518206,-1.8989112,0,-0.16491824,-0.034841016,0,-0.13335642,0.25768875,0.025124248,-1.3213193,-0.16938802,0.13136882,0,0.90602023,1.543884,-0.22861864
-0.33020381,0.090082813,-2.967871,-0.0073670523,-0.055159527,0.030230654,-0.01615025,-0.34586159,-4.9835292,-1.3911467,0.097582219,0.35689956,0,-0.075552725,-0.034841016,0,-0.16484915,0.62742734,-0.19930158,-0.14042306,0.033931338,0.13136882,-0.037329519,0,1.543884,-0.22861864
-0.33020381,0.059150248,-3.2861306,-0.0073670523,-0.12385827,-0.15512326,0.28286626,-0.25510974,-3.2867656,-1.4598855,0.30820634,0.36692733,0,0.13564682,0,0,-0.031492727,-0.19456898,-0.27869165,0.51891548,0.069889693,0.086546709,0,0.55774242,-0.20812838,-0.11088928
-0.45635833,0.059150248,-2.7346801,0.030282743,-0.12176,-0.15512326,0.4666985,-0.15631338,-6.5233081,-1.904682,0.071346572,1.6446435,0,0.058439293,0.034015846,-0.11143805,-0.031492727,-0.25574947,-0.37300054,-1.8876989,0.087357723,0.096016964,-0.037329519,0.85042918,1.440812,-0.074930922
-0.21825445,0.094094329,-1.4790191,0.030282743,-0.0903237,0.030230654,0.13239636,0.077270741,-6.4158237,-0.76036263,0.10944835,1.424679,0,-0.029016319,0,-0.11143805,0.02757821,-0.28658123,-0.27869165,-0.74652624,-0.010679639,0.096016964,-0.037329519,0.85042918,1.917113,-0.074930922
